%YAML:1.0
my_nn: !!opencv-ml-ann-mlp
   layer_sizes: !!opencv-matrix
      rows: 1
      cols: 3
      dt: i
      data: [ 784, 16, 10 ]
   activation_function: SIGMOID_SYM
   f_param1: 5.9999999999999998e-01
   f_param2: 1.
   min_val: -9.4999999999999996e-01
   max_val: 9.4999999999999996e-01
   min_val1: -9.7999999999999998e-01
   max_val1: 9.7999999999999998e-01
   training_params:
      train_method: BACKPROP
      dw_scale: 1.0000000000000001e-01
      moment_scale: 1.0000000000000001e-01
      term_criteria: { epsilon:9.9999999747524271e-07, iterations:1000 }
   input_scale: [ 1., 0., 1., 0., 1., 0., 1., 0., 1., 0., 1., 0., 1., 0.,
       1., 0., 1., 0., 1., 0., 1., 0., 1., 0., 1.7602117681590626e+00,
       -5.2806353044771879e-03, 6.1466319525724977e-01,
       -6.8783738516882712e-03, 9.4880303293028778e-01,
       -4.8795584550700511e-03, 2.2771272790326908e+01,
       -4.8795584550700511e-03, 1., 0., 1., 0., 1., 0., 1., 0., 1., 0.,
       1., 0., 1., 0., 1., 0., 1., 0., 1., 0., 1., 0., 1., 0., 1., 0.,
       1., 0., 1., 0., 1., 0., 1.2808840944558884e+01,
       -4.8795584550700511e-03, 4.2986472504853062e+00,
       -5.6291809232545675e-03, 8.8366712776159040e-01,
       -9.3205842285329649e-03, 4.3283131293659005e-01,
       -1.1799806031247514e-02, 3.2032704331104001e-01,
       -1.6306171871404845e-02, 3.0683419992916378e-01,
       -2.0375251990534235e-02, 2.0028700974510091e-01,
       -2.5951473976972360e-02, 1.7209097661892164e-01,
       -2.9964316952718426e-02, 1.6680176085924683e-01,
       -3.1910765440572579e-02, 1.6919983099328106e-01,
       -3.2248682073838450e-02, 1.6599146312238650e-01,
       -3.2542231127374532e-02, 1.7463332572255130e-01,
       -2.9924667743457183e-02, 1.8130036383588882e-01,
       -2.9819593175674286e-02, 1.8394639982908553e-01,
       -2.7907296659784121e-02, 2.2329238737501586e-01,
       -2.3514814984754648e-02, 2.8922662157195045e-01,
       -1.7580846782694986e-02, 3.4091804676716281e-01,
       -1.5365663393577126e-02, 6.2566071093497222e-01,
       -9.6381542851173112e-03, 7.8927060389095227e-01,
       -8.3061334980904979e-03, 1.0373112054826332e+00,
       -5.2359517991028151e-03, 1., 0., 1., 0., 1., 0., 1., 0., 1., 0.,
       1., 0., 3.2022102361397211e+00, -4.8795584550700511e-03,
       7.0669467280324882e+00, -4.8795584550700511e-03,
       1.0921154733244178e+00, -8.0088468043790634e-03,
       1.2664660333696343e+00, -1.1428348253502175e-02,
       3.2471228319300183e-01, -1.9846105498962756e-02,
       1.8457728467242721e-01, -2.7884354077298827e-02,
       1.3270264287396355e-01, -3.9261024770282649e-02,
       9.9886071238647109e-02, -5.3305866684358001e-02,
       7.7645520806848514e-02, -6.7503536827173014e-02,
       6.2902671612218089e-02, -8.4680475133962457e-02,
       5.1570436113633294e-02, -1.0218313555658483e-01,
       4.4090363094900269e-02, -1.1898204389378790e-01,
       3.9220606015471990e-02, -1.3296252351221380e-01,
       3.7098375622159320e-02, -1.4103565799024234e-01,
       3.7254026952459288e-02, -1.3933272180412290e-01,
       3.9235944129726377e-02, -1.3076592827121045e-01,
       4.3903499244706844e-02, -1.1785894372241551e-01,
       5.0373967016454968e-02, -1.0037612618112181e-01,
       6.5228297393236823e-02, -7.8003725354112208e-02,
       9.3314935400198362e-02, -5.6100050448928775e-02,
       1.3345108199365052e-01, -3.9212376259134311e-02,
       2.4230213952315063e-01, -2.3860991644470263e-02,
       3.9281639672029384e-01, -1.3729868342509317e-02,
       9.5862197938384797e-01, -8.0569894933928167e-03, 1., 0., 1., 0.,
       1., 0., 1., 0., 1.4490851496844050e+00, -5.2443081607626086e-03,
       1.9052540029190910e+00, -7.9385583454962116e-03,
       8.7944755537949626e-01, -1.4427127753725545e-02,
       2.8122335080192779e-01, -2.5243143631506378e-02,
       1.5282891125172648e-01, -3.6042151570198827e-02,
       1.0292868940807320e-01, -5.5657463455875016e-02,
       6.8063198014191181e-02, -8.1188051364594380e-02,
       4.7669410133109963e-02, -1.0929914751948784e-01,
       3.7096571137619140e-02, -1.3979401207364897e-01,
       3.0045691087680838e-02, -1.7167750200702167e-01,
       2.5900272297166124e-02, -2.0075917730683396e-01,
       2.2704481154175667e-02, -2.2815408762100353e-01,
       2.0781687865436611e-02, -2.5078796633707662e-01,
       1.9648821310632399e-02, -2.6339151401086963e-01,
       2.0014738759135443e-02, -2.6164696130138931e-01,
       2.1194124157171458e-02, -2.4529675601907253e-01,
       2.3518294946976263e-02, -2.1861431067961787e-01,
       2.7585332705838982e-02, -1.8505160690166983e-01,
       3.5446985913802326e-02, -1.4675136565899671e-01,
       4.7602319696897169e-02, -1.0803686471780076e-01,
       7.0859524526584283e-02, -7.7371852256884657e-02,
       1.1209477036134664e-01, -4.7594905710807017e-02,
       1.7953072484605093e-01, -3.0156887233068794e-02,
       6.6396942732371844e-01, -1.5761369500993983e-02,
       1.6937310339912579e+00, -4.8795584550700519e-03, 1., 0., 1., 0.,
       5.3931961871826886e+00, -4.8795584550700511e-03,
       2.9431517465560018e+00, -8.0586297822366725e-03,
       8.9340544897062324e-01, -1.4358301858456443e-02,
       2.9420982533265455e-01, -2.5967519583527391e-02,
       1.2733583765894368e-01, -4.9494227375767995e-02,
       7.6459434793190020e-02, -7.8756858762452073e-02,
       4.7822478502192733e-02, -1.1739963020112104e-01,
       3.3068350049753469e-02, -1.6379462387143959e-01,
       2.4865973765238008e-02, -2.1576087026698137e-01,
       1.9678619346323423e-02, -2.7155510766959007e-01,
       1.6366843789939880e-02, -3.3275040422569863e-01,
       1.4183473456737395e-02, -3.9776065421724555e-01,
       1.2717758350754003e-02, -4.5892000728318794e-01,
       1.1849811525062521e-02, -5.0615228520478117e-01,
       1.1456591841713397e-02, -5.2806077725620493e-01,
       1.1663263984171340e-02, -5.1951038062142885e-01,
       1.2311786849751189e-02, -4.7952592325531629e-01,
       1.3581312059512105e-02, -4.2054209427706385e-01,
       1.5530264593648925e-02, -3.5579133624460929e-01,
       1.9096896681910464e-02, -2.8394902863522931e-01,
       2.4944505666091629e-02, -2.1680814058084324e-01,
       3.4708988526703559e-02, -1.5795316914462931e-01,
       5.0930619329076179e-02, -1.0694823742209224e-01,
       8.3198354892110471e-02, -6.9783610622363518e-02,
       1.8307708316402407e-01, -3.7121058100591166e-02,
       4.2817233405743005e-01, -1.5189923279656447e-02, 1., 0., 1., 0.,
       1., 0., 1.1814006271990298e+00, -1.1138920199305138e-02,
       4.3865633487744587e-01, -2.1055504074117402e-02,
       1.2780135401472548e-01, -5.2602428734584740e-02,
       6.2789491174391213e-02, -9.0312218139166026e-02,
       3.9186980606910525e-02, -1.3941514769586646e-01,
       2.7471097661398512e-02, -1.9641638605773784e-01,
       2.0428598119979054e-02, -2.6410383486624922e-01,
       1.6004132884911142e-02, -3.4280662114088178e-01,
       1.3301031968878578e-02, -4.2858395195378135e-01,
       1.1541367219428287e-02, -5.2355681185853509e-01,
       1.0380734985683539e-02, -6.2467036701742229e-01,
       9.6630285600992835e-03, -7.2482929402365304e-01,
       9.3047343927925921e-03, -8.0296512536244569e-01,
       9.1921013275743889e-03, -8.4188748954721560e-01,
       9.2558633733085590e-03, -8.2793962327484294e-01,
       9.5108444503435741e-03, -7.6374549226842436e-01,
       1.0116877861329818e-02, -6.6530588103872712e-01,
       1.1176259224016601e-02, -5.5487652304128543e-01,
       1.3012418624954317e-02, -4.4750358272149149e-01,
       1.6142676114257605e-02, -3.4638224142054519e-01,
       2.1181143870382786e-02, -2.5900605312473646e-01,
       2.9392191187541997e-02, -1.8736262216721414e-01,
       4.4369938750078851e-02, -1.2894326771618153e-01,
       9.0533930199544407e-02, -7.1825740194738558e-02,
       2.3683483605048683e-01, -2.9852467191697079e-02,
       1.1385636395163454e+01, -4.8795584550700511e-03, 1., 0.,
       5.1235363778235538e+01, -4.8795584550700511e-03,
       6.4930372458074093e-01, -1.4995824115317111e-02,
       1.5896992401978802e-01, -3.6305702647566822e-02,
       6.9433898233242183e-02, -8.0164741886384450e-02,
       4.0606626279982690e-02, -1.3270342150741868e-01,
       2.6924840798319936e-02, -1.9835658429649908e-01,
       1.9438704568956269e-02, -2.7421578861237567e-01,
       1.5091820973225135e-02, -3.6412719187334786e-01,
       1.2353028718540588e-02, -4.6797625757856376e-01,
       1.0753126679950700e-02, -5.8075025724791463e-01,
       9.8094722135220348e-03, -7.0632403996878734e-01,
       9.2608770099546767e-03, -8.3784300893832619e-01,
       8.9905250012595802e-03, -9.6683121186997767e-01,
       8.9107732283274978e-03, -1.0666157365279894e+00,
       8.9009156454212656e-03, -1.1116760448567551e+00,
       8.8995863602237407e-03, -1.0848218600166997e+00,
       8.9223610193793091e-03, -9.9616355065449391e-01,
       9.1071904354871839e-03, -8.7054267294256660e-01,
       9.6661579940634651e-03, -7.2110988559412559e-01,
       1.0743757468791314e-02, -5.7733217902545375e-01,
       1.2863376852042415e-02, -4.4966475834596925e-01,
       1.6271314146881280e-02, -3.3674298192678154e-01,
       2.2085157194212886e-02, -2.4567476279134809e-01,
       3.2493042349355489e-02, -1.7072463365443741e-01,
       5.7314063726278459e-02, -1.0164239815686010e-01,
       1.3489697329271225e-01, -4.6635810766909092e-02,
       5.3403462811608948e-01, -1.3363580813095478e-02, 1., 0.,
       8.2313004910726784e-01, -1.4659554207910389e-02,
       2.4017265768494539e-01, -2.7013705592944810e-02,
       9.8197110455940984e-02, -6.1020152042609611e-02,
       4.7181910731372380e-02, -1.1569678538628669e-01,
       2.9934834821505409e-02, -1.7902955605498758e-01,
       2.0794731338063942e-02, -2.5761849985751056e-01,
       1.5694670745311459e-02, -3.5086071711626315e-01,
       1.2627942103700461e-02, -4.6215171247075398e-01,
       1.0775526656808844e-02, -5.8979896468074910e-01,
       9.8017314221757988e-03, -7.3307289331187397e-01,
       9.2903413521821087e-03, -8.8648879579728934e-01,
       9.0962363452935791e-03, -1.0277835280776657e+00,
       9.0420657537860511e-03, -1.1416161302464110e+00,
       9.0441756312794087e-03, -1.2082187440581273e+00,
       9.0823884450091166e-03, -1.2305907589438312e+00,
       9.0796146306380155e-03, -1.2066468439475777e+00,
       9.0409045732999099e-03, -1.1391147989826376e+00,
       9.0237504982032223e-03, -1.0165639519878116e+00,
       9.2219759079580216e-03, -8.5513428413885673e-01,
       9.9316816962273270e-03, -6.8424321046158165e-01,
       1.1446570588015657e-02, -5.2893730567556496e-01,
       1.4260630660385097e-02, -3.9402496007351795e-01,
       1.9162938092659024e-02, -2.8347506190255106e-01,
       2.8620016495191324e-02, -1.9396943608030251e-01,
       4.8973605262617848e-02, -1.1659099563342611e-01,
       1.1289520242791962e-01, -5.4840188569867047e-02,
       6.0918392592664905e-01, -1.3126463165800415e-02,
       3.8668199077913616e+00, -4.8795584550700511e-03,
       2.9521794819843300e-01, -1.9667138549028941e-02,
       1.1900732528700536e-01, -4.5653476786291204e-02,
       6.2188265087100528e-02, -8.7097626600440819e-02,
       3.6302623135200579e-02, -1.4414993733635253e-01,
       2.4526846835026407e-02, -2.1347817101680769e-01,
       1.7778943384105871e-02, -3.0059071233595702e-01,
       1.3761415873511630e-02, -4.0784282275739858e-01,
       1.1316670533405388e-02, -5.3617253320221392e-01,
       9.9547922035390542e-03, -6.8863460162291346e-01,
       9.2780138365520896e-03, -8.5466898592422658e-01,
       9.0242246601457410e-03, -9.9460212770556800e-01,
       8.9864226028501248e-03, -1.0838006512185656e+00,
       8.9593789481580005e-03, -1.1099367140449352e+00,
       8.9852260806997982e-03, -1.1072485541888188e+00,
       9.0160135990959983e-03, -1.0997960935187181e+00,
       9.0242627287741642e-03, -1.1029372259016428e+00,
       9.0100148947098689e-03, -1.0971904878441754e+00,
       8.9669987225540326e-03, -1.0412720171595373e+00,
       9.0744753231642439e-03, -9.0913063142993511e-01,
       9.5871482467496955e-03, -7.3467321382754480e-01,
       1.0875413142443013e-02, -5.6569005231074454e-01,
       1.3440356663301076e-02, -4.1881751405306072e-01,
       1.8496569515463079e-02, -2.9397786996108610e-01,
       2.8028633718797651e-02, -1.9374859792961066e-01,
       4.7693624281171146e-02, -1.1833355965400003e-01,
       1.1341355584323767e-01, -5.4951568128806826e-02,
       6.5212399374725327e-01, -1.1567437508135801e-02,
       8.4100826702843490e-01, -8.0296265494857709e-03,
       2.3320928361604865e-01, -2.2915588416272208e-02,
       9.9396720346000417e-02, -5.4836223979456561e-02,
       5.2771692563465193e-02, -9.5230288637384614e-02,
       3.3034528429137310e-02, -1.5354448813863020e-01,
       2.2908837998433497e-02, -2.2636168281399760e-01,
       1.6571749133964857e-02, -3.2388970747242068e-01,
       1.2836600802312755e-02, -4.4315613569812856e-01,
       1.0619832104211578e-02, -5.8998831249350892e-01,
       9.5217738114985687e-03, -7.6053853407723226e-01,
       9.0537936103231055e-03, -9.1454158459944301e-01,
       8.9559329821172224e-03, -1.0021695404084159e+00,
       8.9847857218246490e-03, -9.9836756921525904e-01,
       9.0979088221894155e-03, -9.4698161716591489e-01,
       9.1897135440119574e-03, -9.0544781571036848e-01,
       9.1963767516556431e-03, -9.0920591847026966e-01,
       9.1595521591906863e-03, -9.5143953906834855e-01,
       9.0515130027369675e-03, -1.0024354534416131e+00,
       8.9788956237281461e-03, -9.9922452324929389e-01,
       9.0905158253670182e-03, -9.0119391380993696e-01,
       9.5825351735335084e-03, -7.3460786971624914e-01,
       1.0825732794702121e-02, -5.6400521327141662e-01,
       1.3476812798615272e-02, -4.1626377181124841e-01,
       1.8994324572134683e-02, -2.8572484085127486e-01,
       3.0702676326681749e-02, -1.7963843512300287e-01,
       5.6552047198874481e-02, -1.0393458388764575e-01,
       1.3868348378684089e-01, -4.5844797354678550e-02,
       4.4622567179845890e-01, -1.3960488874837499e-02,
       5.6603550615898213e-01, -8.4231474130800899e-03,
       2.2802084828923805e-01, -2.2606638387533028e-02,
       9.9903189371878851e-02, -5.3973887381840543e-02,
       5.4737864166688494e-02, -9.3545706578390467e-02,
       3.4447888634445333e-02, -1.4845317607014216e-01,
       2.3081133293790253e-02, -2.2632644891860199e-01,
       1.6209234242240574e-02, -3.3191147243442815e-01,
       1.2437017230819329e-02, -4.6431057203926218e-01,
       1.0308728567332646e-02, -6.2754826956290366e-01,
       9.3437244077496026e-03, -7.9649132661274569e-01,
       9.0354068214653725e-03, -9.2024542832955591e-01,
       9.0333042051567881e-03, -9.3589311630988192e-01,
       9.2859730172773040e-03, -8.6527426187155565e-01,
       9.6335005096547487e-03, -7.9021563296066100e-01,
       9.7256484598248951e-03, -7.6757920589922868e-01,
       9.5114154475767713e-03, -7.9883524919563020e-01,
       9.3290369301114364e-03, -8.7467695325170691e-01,
       9.1045020698764158e-03, -9.5175776642638843e-01,
       9.0410612558191449e-03, -9.6309065500496838e-01,
       9.1586417776647489e-03, -8.6264352845936443e-01,
       9.7743738124944218e-03, -6.9779487370583682e-01,
       1.1164556054909486e-02, -5.3469158946790907e-01,
       1.3975640120207605e-02, -3.9421620492407505e-01,
       2.0026667771665115e-02, -2.7028753745316259e-01,
       3.4727956757202527e-02, -1.6069452447670876e-01,
       7.0234064144116620e-02, -8.1280879090212671e-02,
       1.6546581587026843e-01, -3.6422177802872185e-02,
       4.5954090461192315e-01, -1.4092587741432310e-02,
       1.2359115626646624e+00, -7.8274398968761951e-03,
       3.0047474076586617e-01, -2.0146115952301886e-02,
       1.1031110162998851e-01, -4.8510620169187807e-02,
       6.3759319593856126e-02, -8.2112895162658989e-02,
       3.8124045895025577e-02, -1.3599482571520541e-01,
       2.3762867077766387e-02, -2.2434070182079668e-01,
       1.6023070558069442e-02, -3.3787505534289075e-01,
       1.2105457295502099e-02, -4.8503223971061959e-01,
       1.0057994555167843e-02, -6.5570964165475298e-01,
       9.2503827887782542e-03, -8.2002551074031282e-01,
       9.0517442871879145e-03, -9.0482852277638814e-01,
       9.1862853229760476e-03, -8.7211815098629786e-01,
       9.6200744662497967e-03, -7.8059002089591256e-01,
       9.9986509339102386e-03, -7.2977701116500848e-01,
       9.7307534806668899e-03, -7.3958707672112034e-01,
       9.3882690872219270e-03, -8.0359291606465533e-01,
       9.2524726113161707e-03, -9.0511321983849224e-01,
       9.0852584982657209e-03, -9.8124317726829824e-01,
       9.0531662599829983e-03, -9.5672804832769986e-01,
       9.2745752313627052e-03, -8.2264797750205843e-01,
       1.0114430364304627e-02, -6.5326649361383682e-01,
       1.1752329825856651e-02, -4.9901623637045289e-01,
       1.4540877318223924e-02, -3.6891452117247087e-01,
       2.0429195962420682e-02, -2.5870560947954196e-01,
       3.6811666057333818e-02, -1.5204971018157787e-01,
       9.7132354489798303e-02, -6.3062024814948103e-02,
       2.1871098351603471e-01, -2.9546812392142404e-02,
       1.1279283866887220e+00, -1.0876452300212676e-02,
       1.2573095405701973e+00, -4.8795584550700511e-03,
       3.9754097334447119e-01, -1.3923399328326600e-02,
       1.4190671436364410e-01, -3.7828275571794273e-02,
       7.5955788252328252e-02, -6.8038301562597464e-02,
       4.2094846452795848e-02, -1.2535043467043502e-01,
       2.3619970330746989e-02, -2.2574336739414658e-01,
       1.5433220745177285e-02, -3.5267444860423947e-01,
       1.1606641443578593e-02, -5.1093679203359066e-01,
       9.8210150901152145e-03, -6.8358146666499409e-01,
       9.1578149841237740e-03, -8.3415091607603720e-01,
       9.0474809717808607e-03, -8.9484649091932644e-01,
       9.2328094941422755e-03, -8.4409487947252637e-01,
       9.6078641206884773e-03, -7.6634314427036299e-01,
       9.6694490746082312e-03, -7.7067419991944730e-01,
       9.1761217927724195e-03, -8.2131599087207541e-01,
       9.0122053543383752e-03, -9.2036353248804204e-01,
       9.0896280236944810e-03, -1.0355518876582925e+00,
       8.9931354656830852e-03, -1.0653568043830373e+00,
       8.9973611911102515e-03, -9.7015203846728004e-01,
       9.4215125380971310e-03, -7.9390397834448190e-01,
       1.0533392554155301e-02, -6.1482283760830825e-01,
       1.2260122278894033e-02, -4.7026092643619177e-01,
       1.4854073145643239e-02, -3.5627883475074362e-01,
       1.9872009535333576e-02, -2.5742816238080540e-01,
       3.5065101726753312e-02, -1.5637198626708196e-01,
       1.1490892263444213e-01, -5.4691175320535676e-02,
       2.8552671897300208e-01, -2.1258144053061367e-02,
       1.0260682897674194e+00, -1.1189030397939954e-02,
       6.4044204722794422e+00, -4.8795584550700511e-03,
       6.9790627046140907e-01, -9.4217346512290231e-03,
       2.0509574057292282e-01, -2.6491533157335868e-02,
       9.3132195162740530e-02, -5.7098905367632589e-02,
       4.3721148116825134e-02, -1.2307399096914569e-01,
       2.2341048862902842e-02, -2.3905560598987838e-01,
       1.4567957044320727e-02, -3.7441938854296952e-01,
       1.1165057873355496e-02, -5.3518561826671107e-01,
       9.6610342593789322e-03, -7.0357609114590669e-01,
       9.1347295220546194e-03, -8.3824540968150152e-01,
       9.0744185793155043e-03, -8.8156096797058692e-01,
       9.2312110090063421e-03, -8.4113453990562104e-01,
       9.3864986743851311e-03, -8.1512488581198683e-01,
       9.2035820830986183e-03, -8.9160556048354156e-01,
       8.7942151552598425e-03, -9.8019735839515854e-01,
       8.9563939133347741e-03, -1.1151247805736595e+00,
       9.0876093106320426e-03, -1.1873619334157532e+00,
       8.9185975416488424e-03, -1.1371636560723306e+00,
       8.9529438114453932e-03, -9.8042088939172178e-01,
       9.5523238164359082e-03, -7.7633054786606415e-01,
       1.0742432685908101e-02, -5.9478164173701675e-01,
       1.2346309328345411e-02, -4.6269264006703992e-01,
       1.4745244587314899e-02, -3.5816936364817259e-01,
       1.9101103592461352e-02, -2.6558902096047499e-01,
       3.1944615533567436e-02, -1.6794425265122601e-01,
       9.8789639610873434e-02, -6.0859122268850936e-02,
       2.9241126462369504e-01, -2.1206778858185119e-02,
       5.8517703274731747e-01, -7.5376374932452092e-03, 1., 0.,
       1.0827288933815729e+00, -5.4136444669078644e-03,
       3.3704050641866667e-01, -1.7686601813017649e-02,
       1.1528602971198422e-01, -4.9814544457454514e-02,
       4.3279447698921919e-02, -1.2708391538964151e-01,
       2.0836569421683694e-02, -2.5757174901493873e-01,
       1.3835985954410577e-02, -3.9453972805475779e-01,
       1.0900669403763262e-02, -5.5124840898679439e-01,
       9.5987553192301619e-03, -7.0623093657208558e-01,
       9.1567052938528615e-03, -8.2164163082346742e-01,
       9.1342850490202798e-03, -8.6372168301205587e-01,
       9.2435563471938900e-03, -8.5664966566164280e-01,
       9.2563720288911123e-03, -8.9938128323935140e-01,
       8.9642657695581090e-03, -1.0305200405140409e+00,
       8.7835805918794248e-03, -1.1430964330244158e+00,
       9.1200672504336416e-03, -1.2752238262258844e+00,
       9.1144957194294694e-03, -1.2525018491030384e+00,
       8.8934875049340358e-03, -1.1441821062106758e+00,
       8.9799128881994615e-03, -9.6699251183797130e-01,
       9.5889587104748698e-03, -7.6472470825680761e-01,
       1.0614883160310498e-02, -5.9777512329037896e-01,
       1.2077567046025564e-02, -4.7397980530447115e-01,
       1.4368545123743047e-02, -3.7005127430726797e-01,
       1.8512512322270927e-02, -2.7507036821097713e-01,
       3.0036392217506622e-02, -1.7554697916302181e-01,
       8.4615497182693997e-02, -7.0200642841213620e-02,
       3.3583929645532357e-01, -2.4964054369845719e-02,
       3.5467174777781150e+00, -6.8400979928577932e-03, 1., 0., 1., 0.,
       4.6426863617931963e-01, -1.6558914690395735e-02,
       1.0954183471283160e-01, -5.2444457438229002e-02,
       3.9849501296086880e-02, -1.3856051119709370e-01,
       1.9274323368391539e-02, -2.7590046620699604e-01,
       1.3337222561224498e-02, -4.1056448539594559e-01,
       1.0824799750095551e-02, -5.5227947911658326e-01,
       9.6967649646961286e-03, -6.8942775259601063e-01,
       9.2690227183708992e-03, -7.8911913189257488e-01,
       9.2289479697067328e-03, -8.3780499537425934e-01,
       9.2353027353692541e-03, -8.6566802346559191e-01,
       9.1118767937490592e-03, -9.5321035345099181e-01,
       8.8696713733156709e-03, -1.0918130424288994e+00,
       8.8693042761789423e-03, -1.2019826865076526e+00,
       9.1284812677985359e-03, -1.2695291875628034e+00,
       8.9768004891078289e-03, -1.1849293289617793e+00,
       8.8825785470821109e-03, -1.0810049449106884e+00,
       9.1007518398937021e-03, -9.2753085938742152e-01,
       9.5828381832584464e-03, -7.5568550692071956e-01,
       1.0418355182104657e-02, -6.1309291629852491e-01,
       1.1764042606102832e-02, -4.9092274112900458e-01,
       1.4076443131686742e-02, -3.8241238448467846e-01,
       1.8540568958526845e-02, -2.7989637495604636e-01,
       2.9844102514668878e-02, -1.7592458915914844e-01,
       7.2343478669610231e-02, -7.6548012751336866e-02,
       1.9708000817381649e-01, -2.8337289746706615e-02,
       8.7985074056102419e-01, -9.6574093190150510e-03, 1., 0.,
       3.6043899795428747e+00, -6.7796859139020735e-03,
       3.1129332192314757e-01, -2.0730652890929614e-02,
       9.4893949997744281e-02, -6.1437054484253871e-02,
       3.5102947389941144e-02, -1.5616549087769316e-01,
       1.8036939775050411e-02, -2.9492930292794867e-01,
       1.3007304510605285e-02, -4.1950167474879546e-01,
       1.0937042463811766e-02, -5.4420587972589174e-01,
       9.9304389549633512e-03, -6.5736148447734521e-01,
       9.5074603107302303e-03, -7.3873260892907311e-01,
       9.4110438950849185e-03, -7.8631983020366170e-01,
       9.3260993455944359e-03, -8.2885818958962765e-01,
       9.1009800281883161e-03, -9.1474578664322714e-01,
       8.8561543965511441e-03, -1.0216347955627347e+00,
       8.8741171821766791e-03, -1.1182454656489520e+00,
       8.9839298732721836e-03, -1.1450208997237474e+00,
       8.9028016868391759e-03, -1.0800826013606104e+00,
       8.9833808557213627e-03, -1.0004093977550461e+00,
       9.2260760663174547e-03, -8.8506604411246637e-01,
       9.5688550390831961e-03, -7.4981251907409485e-01,
       1.0266602968630282e-02, -6.2133187834637071e-01,
       1.1663014953075843e-02, -4.9719293899546207e-01,
       1.4126833076121037e-02, -3.8217590603365026e-01,
       1.9139461996281134e-02, -2.7439927673034992e-01,
       3.0873285428969267e-02, -1.7259269172130570e-01,
       6.6528394298550314e-02, -8.2702714160038354e-02,
       1.8077952146469739e-01, -3.4094156893377810e-02,
       5.8996329142914949e-01, -1.1869499553753127e-02, 1., 0.,
       2.0941142193767499e+00, -7.7781385291136422e-03,
       2.3949193645605588e-01, -2.5180866461665306e-02,
       7.6697695650256165e-02, -7.4192237592347804e-02,
       3.0046847453680262e-02, -1.7692084561517832e-01,
       1.7051883370222017e-02, -3.0974258945340571e-01,
       1.2854426632537016e-02, -4.2781153939301103e-01,
       1.1122618326283048e-02, -5.3412640490107655e-01,
       1.0255015159161029e-02, -6.2165706561212075e-01,
       9.8499187748026604e-03, -6.8359585454320859e-01,
       9.6803571939430878e-03, -7.2205945648908054e-01,
       9.4928184854991687e-03, -7.6191011106876905e-01,
       9.2198302407524250e-03, -8.1980886534722419e-01,
       9.0189868545264684e-03, -9.1278395837271353e-01,
       8.9364164943812035e-03, -1.0017642036909238e+00,
       8.9501699011579321e-03, -1.0332133670703225e+00,
       8.9971260502138359e-03, -1.0130892462912926e+00,
       9.0915560924419037e-03, -9.5677198488149107e-01,
       9.2380984569012548e-03, -8.6405166613858364e-01,
       9.5100936178787940e-03, -7.4806713401355185e-01,
       1.0274073961095559e-02, -6.2067882386255646e-01,
       1.1792671205373740e-02, -4.8963704322694862e-01,
       1.4688731612559241e-02, -3.7087998126596905e-01,
       2.0309999907438838e-02, -2.6035437238488485e-01,
       3.3013677390248207e-02, -1.6678745629534752e-01,
       6.5356159818398069e-02, -8.6786755842659449e-02,
       1.7469285970220544e-01, -3.5687255624879115e-02,
       7.9092112583472607e-01, -1.4311906086533138e-02,
       2.6025797874430245e+00, -6.8782465810994222e-03,
       1.4941626099384036e+00, -7.9688672530048195e-03,
       1.9033905794487546e-01, -3.2656744084542201e-02,
       6.0641039427195516e-02, -9.1510216164182187e-02,
       2.6228044161169205e-02, -1.9731420070171785e-01,
       1.6155861985918622e-02, -3.2551600055990076e-01,
       1.2612675110398179e-02, -4.3792919703496030e-01,
       1.1079739713691165e-02, -5.3515907846775224e-01,
       1.0364530700127692e-02, -6.0693605971969655e-01,
       9.9911710030847860e-03, -6.5800187031149215e-01,
       9.7295455989790201e-03, -6.9527078028871725e-01,
       9.5379667526290166e-03, -7.2744073991172387e-01,
       9.3995244251919765e-03, -7.7659810753378622e-01,
       9.1626230997670140e-03, -8.6444789450521176e-01,
       8.9992578629629252e-03, -9.5464577373203863e-01,
       9.0007035358296329e-03, -1.0134052837839438e+00,
       9.0651178131656556e-03, -1.0166538260910818e+00,
       9.0801228958498122e-03, -9.6239790186307594e-01,
       9.1494140562928660e-03, -8.6554045149148418e-01,
       9.4911810599399970e-03, -7.4121853046654407e-01,
       1.0427729178718851e-02, -6.0282454102907512e-01,
       1.2199111838874718e-02, -4.6841626819832338e-01,
       1.5454756487176870e-02, -3.5045463389597059e-01,
       2.1697638013894797e-02, -2.4495806741000983e-01,
       3.4943973779860721e-02, -1.5561300323610119e-01,
       6.6987092701848050e-02, -8.3496221191296363e-02,
       1.9836635248450196e-01, -3.2149518127666782e-02,
       8.5438119570061244e-01, -9.4795627903925105e-03, 1., 0.,
       7.4211809015005414e-01, -7.1207997697731390e-03,
       1.4194266083056986e-01, -3.9135619343285688e-02,
       5.1238642691615266e-02, -1.0435847555062271e-01,
       2.4368515582855601e-02, -2.1015117737278685e-01,
       1.5600338960607541e-02, -3.3677157443883149e-01,
       1.2252536167828391e-02, -4.5185048743243345e-01,
       1.0807083926466518e-02, -5.5247099589707138e-01,
       1.0117769672761522e-02, -6.3343621982352083e-01,
       9.7260781224742330e-03, -6.9323038649854640e-01,
       9.4833626705362762e-03, -7.3602387255740798e-01,
       9.3440516190734565e-03, -7.6775244393923403e-01,
       9.2094629486343775e-03, -8.2207437773860847e-01,
       9.0833614580738617e-03, -9.1137453021511194e-01,
       8.9630639844824282e-03, -1.0076848460199870e+00,
       8.9839912422087879e-03, -1.0659409351831703e+00,
       9.0355563031890244e-03, -1.0588396252840444e+00,
       8.9946623003066412e-03, -9.7755146336314047e-01,
       9.1369715145525315e-03, -8.5370749478869523e-01,
       9.6905274429901021e-03, -7.0953095957513612e-01,
       1.0848945693011211e-02, -5.6247056377639748e-01,
       1.2955462264803159e-02, -4.3135057378968489e-01,
       1.6825031052897295e-02, -3.1876984250003432e-01,
       2.4233385820533058e-02, -2.2124331173156997e-01,
       3.9415992904321052e-02, -1.3935711986527013e-01,
       7.4716505301308564e-02, -7.6636007901787415e-02,
       1.8763931329507408e-01, -2.9986549305631841e-02,
       1.2617244325596462e+00, -6.8493612053237935e-03, 1., 0.,
       8.9939641443239859e-01, -8.2444671322969877e-03,
       1.3297128138593217e-01, -4.3025707477019483e-02,
       4.7857997435693467e-02, -1.0980105930716329e-01,
       2.4426044220616852e-02, -2.0949694712789774e-01,
       1.5975658775258972e-02, -3.3008792049591695e-01,
       1.2292094065195980e-02, -4.5362978073324300e-01,
       1.0581115263117504e-02, -5.6865684668467131e-01,
       9.7551926910301231e-03, -6.7298101364310969e-01,
       9.3524866235316258e-03, -7.6084816804085664e-01,
       9.1628447287469064e-03, -8.2656844217989289e-01,
       9.0653324780134298e-03, -8.8496703767739848e-01,
       8.9957343340286745e-03, -9.5577471202301323e-01,
       8.9706192036213307e-03, -1.0492051171587515e+00,
       8.9750998550493667e-03, -1.1269039216215824e+00,
       8.9799558199064964e-03, -1.1380351462685478e+00,
       8.9838130898713831e-03, -1.0750937680661552e+00,
       9.0243707888388106e-03, -9.4987067581181606e-01,
       9.3500079069357492e-03, -7.9561487996322255e-01,
       1.0196191787899588e-02, -6.3523512947617256e-01,
       1.1857333961134076e-02, -4.9171234666921959e-01,
       1.4725344373385759e-02, -3.7148678061052637e-01,
       1.9800475109975190e-02, -2.7040094538042403e-01,
       2.8577756374399157e-02, -1.8577174658009418e-01,
       4.5377581641843349e-02, -1.1950726334684707e-01,
       8.7468389773358288e-02, -6.6034469117467728e-02,
       2.5400554992080882e-01, -2.6471006952461434e-02,
       4.0988291022588434e+00, -4.8795584550700519e-03,
       6.4044204722794422e+00, -4.8795584550700511e-03,
       1.3472076008105356e+00, -9.5266823200173580e-03,
       1.4771143697900588e-01, -4.0226748003949264e-02,
       5.3417412174076140e-02, -1.0187209238855122e-01,
       2.8038915102098109e-02, -1.8942423449760767e-01,
       1.7686329954960885e-02, -2.9974834117977128e-01,
       1.3077794569693648e-02, -4.2580582953981794e-01,
       1.0802108129166068e-02, -5.5509924692768731e-01,
       9.6776412191536647e-03, -6.8178821094917241e-01,
       9.1670587329198347e-03, -8.0163745986352297e-01,
       8.9965163757150055e-03, -9.0880045211729010e-01,
       8.9658470538782273e-03, -1.0075353548991746e+00,
       8.9953820963278273e-03, -1.1027286847095703e+00,
       9.0539577010148378e-03, -1.1843734286090610e+00,
       9.0432761545156618e-03, -1.2025905811027136e+00,
       9.0108531024552466e-03, -1.1384507044792511e+00,
       9.0348131554477702e-03, -1.0084383097424159e+00,
       9.2723110019098179e-03, -8.4328047945692863e-01,
       9.9579252118364089e-03, -6.7421246985988315e-01,
       1.1388666724314591e-02, -5.2600997694830720e-01,
       1.3911443932745089e-02, -4.0093443863882428e-01,
       1.8278399528692674e-02, -2.9673023234883050e-01,
       2.5120574812575416e-02, -2.1094584022613330e-01,
       3.6022054426346123e-02, -1.4847604700169845e-01,
       5.8661751560937427e-02, -9.5889616468204722e-02,
       1.1649175862582824e-01, -4.9997153356885232e-02,
       3.1912960311724659e-01, -2.0971373919133347e-02,
       5.2549091054600554e+00, -4.8795584550700511e-03,
       6.6110146810626507e+00, -4.8795584550700519e-03,
       1.9028492638570164e+01, -6.3428308795233880e-03,
       1.8862888433799685e-01, -3.2161224779628468e-02,
       6.9979166923155395e-02, -8.1034209126372922e-02,
       3.7036164862495391e-02, -1.4925750802275464e-01,
       2.2328999217389071e-02, -2.4356844496314953e-01,
       1.5405474955406454e-02, -3.5829870252772955e-01,
       1.2018311731626293e-02, -4.8367666948902077e-01,
       1.0220232274664882e-02, -6.2025080973986335e-01,
       9.3412806969491915e-03, -7.5466649870536351e-01,
       8.9563237906033957e-03, -8.8592692275839346e-01,
       8.8499233296080154e-03, -1.0000666217409331e+00,
       8.8872212395391861e-03, -1.0900561963215192e+00,
       8.9253225551693179e-03, -1.1248669019351847e+00,
       8.9088775590018196e-03, -1.0858697834339517e+00,
       8.9829862547165379e-03, -9.7432356307094592e-01,
       9.3013120390752456e-03, -8.2839013092696268e-01,
       1.0055815881264734e-02, -6.7211900171853989e-01,
       1.1521856980525868e-02, -5.2691701477355268e-01,
       1.3983223203400966e-02, -4.0353751028643309e-01,
       1.8091143740198358e-02, -3.0186796296591450e-01,
       2.4537485070000181e-02, -2.1872480501064162e-01,
       3.4504307691016957e-02, -1.5691655453625461e-01,
       5.0997636010823279e-02, -1.0720553050075234e-01,
       8.6151241866157469e-02, -6.8672795867549666e-02,
       1.9195246649015216e-01, -3.8751546746904765e-02,
       5.7086933053416600e-01, -1.3320284379130541e-02,
       2.8464090987908635e+00, -4.8795584550700511e-03, 1., 0., 1., 0.,
       3.6984631558280723e-01, -2.2446149010013704e-02,
       1.1489300649279220e-01, -5.4327978784448887e-02,
       5.6030721579610844e-02, -1.0134490062472135e-01,
       3.3472348190164473e-02, -1.6824557033517695e-01,
       2.1667463100543443e-02, -2.6017309496373259e-01,
       1.5513596130160059e-02, -3.6780852630793692e-01,
       1.2235883276684827e-02, -4.8745049600158230e-01,
       1.0489072170162633e-02, -6.1142824572367949e-01,
       9.5885496631861172e-03, -7.3420415136341965e-01,
       9.1825214308090177e-03, -8.4133475231573007e-01,
       9.0468205217425247e-03, -9.0380946479488156e-01,
       9.0727058439678161e-03, -9.0562540040374218e-01,
       9.2545418072092229e-03, -8.4747430972220983e-01,
       9.6845367651874591e-03, -7.4057560409705014e-01,
       1.0610957439727571e-02, -6.1715046433993415e-01,
       1.2191029919546134e-02, -4.9489398879612390e-01,
       1.4862832260262943e-02, -3.8177591023803698e-01,
       1.8962014702559728e-02, -2.8834045885598808e-01,
       2.5210686260806935e-02, -2.1211611139964695e-01,
       3.5363997536427265e-02, -1.5117940546834385e-01,
       5.0587215882040217e-02, -1.0649572509186267e-01,
       7.5779357791185192e-02, -7.2037300932639520e-02,
       1.3960823194355190e-01, -4.3215395797574246e-02,
       3.4231508629742236e-01, -2.2152676298961761e-02,
       9.3625773004230350e-01, -1.1591762371952330e-02, 1., 0., 1., 0.,
       1., 0., 5.6808331779432808e-01, -1.0252551306859540e-02,
       2.1718122057296221e-01, -3.0157163770988465e-02,
       1.0534694479288524e-01, -5.8648149122553402e-02,
       5.8765486582355350e-02, -9.6221488387347079e-02,
       3.6835837077346348e-02, -1.5293888737018227e-01,
       2.4745990767273924e-02, -2.2086680545176524e-01,
       1.8238971063414919e-02, -2.9941789715647199e-01,
       1.4506373576808200e-02, -3.8294063123997113e-01,
       1.2476595574861056e-02, -4.6338521557733064e-01,
       1.1409042287576875e-02, -5.2712192998994678e-01,
       1.1018417769239815e-02, -5.6452994612340301e-01,
       1.1032502716682765e-02, -5.6307792436859938e-01,
       1.1557815004880279e-02, -5.3089557368988460e-01,
       1.2645578969043612e-02, -4.7156748967545953e-01,
       1.4307759335045616e-02, -4.0084618553063794e-01,
       1.6879529415067863e-02, -3.2809746057961159e-01,
       2.1062245616318063e-02, -2.5611740817646611e-01,
       2.6719173924028561e-02, -1.9539922741884402e-01,
       3.6407245154650797e-02, -1.4564718424118051e-01,
       5.0964274078461498e-02, -1.0152932800997505e-01,
       7.6488127676930459e-02, -7.1343390517708355e-02,
       1.1754853587530255e-01, -4.7517596240259204e-02,
       2.5516768132879625e-01, -2.5583597763703832e-02,
       5.1552026998794032e-01, -1.1893789086150339e-02,
       2.0568412263005698e+00, -5.6807995774015739e-03, 1., 0., 1., 0.,
       1., 0., 3.5590260059970182e+00, -7.9654391562790413e-03,
       5.5641971243104971e-01, -1.1631821607487183e-02,
       1.9353295699413955e-01, -2.8822586809484355e-02,
       1.0765710770440032e-01, -5.0908995621835589e-02,
       6.4207951940279076e-02, -8.3837240104878669e-02,
       4.1715324791257953e-02, -1.2475067201027575e-01,
       2.9353412899144685e-02, -1.7151129267891907e-01,
       2.3192936754805701e-02, -2.1891095126247262e-01,
       1.9483750001698059e-02, -2.6268362871336975e-01,
       1.7725130793901221e-02, -2.9345895353152329e-01,
       1.6971100887705197e-02, -3.0761372987840713e-01,
       1.7087399045330812e-02, -3.0585020341221708e-01,
       1.8124514810497906e-02, -2.9195141071176794e-01,
       1.9632115643308225e-02, -2.6786152069994712e-01,
       2.1896008665233731e-02, -2.3853355439843732e-01,
       2.5468590501890719e-02, -2.0515070928275364e-01,
       3.0970062509066483e-02, -1.6518399006919093e-01,
       4.0253878444948564e-02, -1.2826610838779681e-01,
       5.4810792539970642e-02, -9.4335899055639466e-02,
       7.8293032283323183e-02, -6.5385866675472484e-02,
       1.2309117097114464e-01, -4.6619315634238045e-02,
       2.0014393929662122e-01, -2.9244841796746773e-02,
       5.9741117591818127e-01, -1.4579677507527042e-02,
       1.3313087583545389e+00, -6.7833351020921747e-03,
       1.9705909145475209e+00, -4.8795584550700511e-03, 1., 0., 1., 0.,
       1., 0., 1., 0., 1., 0., 4.1318987255160650e-01,
       -1.4481321247522971e-02, 2.0761255809512158e-01,
       -2.8996553947285314e-02, 1.0397882818436062e-01,
       -5.2311253322274751e-02, 6.7506812317737724e-02,
       -7.7385309186900023e-02, 4.8354458018623252e-02,
       -1.0453197656668804e-01, 3.9805711479803774e-02,
       -1.2910792967467308e-01, 3.3227319530105562e-02,
       -1.5408220080099880e-01, 2.9294553284428572e-02,
       -1.7516678136424063e-01, 2.7927271592424516e-02,
       -1.8446228860811559e-01, 2.8472931960048502e-02,
       -1.8346804879237824e-01, 3.0284762658390540e-02,
       -1.7205062092542697e-01, 3.3657099712148482e-02,
       -1.5673951064044159e-01, 3.7095416545723209e-02,
       -1.3994334214294427e-01, 4.3708250723013743e-02,
       -1.2014981854701974e-01, 5.3778223488199640e-02,
       -9.6610017628765504e-02, 6.9279583729926250e-02,
       -7.5508148210026285e-02, 9.5077844379224286e-02,
       -5.3546936451099321e-02, 1.5457772214525931e-01,
       -3.7032405719657123e-02, 2.5149268290122012e-01,
       -2.3520553772285537e-02, 5.4171365100122415e-01,
       -1.3452555666530398e-02, 7.1656597888876403e+00,
       -6.1419941047608341e-03, 3.4735839849651216e+00,
       -4.8795584550700519e-03, 1., 0., 1., 0., 1., 0., 1., 0., 1., 0.,
       1., 0., 1., 0., 1.0528619374127854e+00, -6.4675804726785392e-03,
       4.2538149053074620e-01, -1.5242836744018407e-02,
       2.5417911561025019e-01, -2.0933465735615605e-02,
       2.2009324514703807e-01, -2.5289761930466802e-02,
       1.7074453993032551e-01, -3.0514488493262458e-02,
       1.3851075024072032e-01, -4.1754395447565713e-02,
       1.1200490925946409e-01, -4.6330030680111184e-02,
       9.9960521541336028e-02, -5.1346387898399612e-02,
       9.8721804721073836e-02, -5.5169035204960089e-02,
       8.8851000519311538e-02, -6.0228285352019031e-02,
       9.3493744877645071e-02, -5.6358919828862333e-02,
       1.0548575836316722e-01, -5.1607651496341903e-02,
       1.2578368346196384e-01, -4.2793406023523835e-02,
       1.5840794713258419e-01, -3.4736599835502389e-02,
       2.1580729857983175e-01, -2.5270007009895536e-02,
       3.0539489329964720e-01, -1.8025570011662509e-02,
       5.6823056681448347e-01, -1.1472845729968617e-02,
       5.2785067559143395e-01, -9.0991402173380507e-03,
       2.4139461924844663e+00, -6.8969891213841892e-03, 1., 0., 1., 0.,
       1., 0., 1., 0. ]
   output_scale: [ 1., 0., 1., 0., 1., 0., 1., 0., 1., 0., 1., 0., 1.,
       0., 1., 0., 1., 0., 1., 0. ]
   inv_output_scale: [ 1., 0., 1., 0., 1., 0., 1., 0., 1., 0., 1., 0.,
       1., 0., 1., 0., 1., 0., 1., 0. ]
   weights:
      - [ -2.3939812486818974e-03, 8.4936007508614429e-04,
          9.6585435686827163e-04, -2.4647605855414741e-03,
          1.3195145769160962e-03, 2.4623047461713294e-03,
          -1.1527886789964208e-03, -7.1983589707890036e-04,
          -2.8637706880977134e-04, 8.0550090219362526e-04,
          -3.6580978255983988e-04, 1.2967108669864477e-03,
          -5.7424664986832413e-04, -5.0203014148849810e-04,
          2.6014635959103936e-05, 2.5323896949311507e-03,
          2.0440570886294117e-03, -1.2310171640883684e-03,
          1.2343677264945523e-03, -6.1804884966640760e-04,
          -1.4549882515290206e-03, 1.4253269117816942e-04,
          1.7821241496321864e-03, -1.8287070494086590e-04,
          -1.9155151864738570e-03, -2.3689156675591344e-03,
          -5.8447003378880717e-04, -6.9126715158206046e-04,
          -1.1010024937640765e-03, 1.6544476810894349e-03,
          2.3939269109873895e-04, 8.3786623865808412e-04,
          2.2279110503575571e-03, 2.5402012975600532e-03,
          2.1853465457793869e-03, -2.4135038841213764e-03,
          2.0650200838872282e-03, -1.1405015523387968e-03,
          -1.9950081115206460e-03, -1.9740227074472026e-03,
          1.4074703738230349e-03, 1.1775424616181618e-03,
          5.6214688258838792e-04, -4.8225006653366870e-04,
          -2.4973307373513643e-03, -7.7279824785335654e-05,
          -9.7221523368987844e-04, -2.4126025514868538e-03,
          -1.1564026870763044e-03, 1.3289419955234798e-03,
          -1.1119094626632953e-04, 3.3182091883472595e-04,
          -5.3885584467294010e-06, 2.0682456716878020e-03,
          -1.8037833860842826e-03, 2.6914677818572463e-04,
          2.2078161816006798e-03, -2.1658414545546516e-04,
          8.2478670392002284e-04, 5.0502262576391543e-05,
          -1.1059541552507028e-03, -1.1462790539958705e-03,
          1.6838522820160709e-03, 1.4928813937643301e-03,
          1.5687188046610799e-03, 1.9710678023607616e-03,
          -2.6271519525812390e-03, 7.0628970800172878e-04,
          -2.2613805103023424e-03, -2.2492453046296331e-03,
          -7.7591035675663193e-04, -1.4141484873715245e-03,
          1.0217720036861386e-03, -6.5866018284825719e-04,
          6.8713841541900500e-05, 2.1593736101307428e-03,
          2.0481151737595854e-03, -1.1709347690116419e-03,
          -1.4722701741640997e-03, 1.9868746373063778e-03,
          2.4384749453281447e-03, -1.7161463333902867e-03,
          2.6059160613438365e-03, -8.8687862866976979e-04,
          -5.6483769748883416e-04, -2.3118418358634013e-03,
          -6.8629192464709620e-04, 7.8209277214531076e-04,
          2.6912930647970533e-04, -1.4936435078858603e-03,
          -1.6497104491172473e-03, 1.6033722408983180e-03,
          -4.0906000403777390e-04, 2.4268791288125573e-03,
          9.1706583663770248e-04, -6.9467677212588968e-04,
          4.3751175821924397e-04, 1.1676377239260146e-03,
          2.2238680966890933e-03, 4.5620419151829947e-04,
          1.5004634113546052e-03, -7.7760377606646844e-04,
          1.5636579908030041e-03, 3.8609082710068190e-04,
          8.5233739630226162e-04, -7.0119542111019429e-04,
          -1.6199184262887893e-03, -5.8480904716358649e-05,
          1.0138603792754091e-03, 2.8445463331344223e-04,
          1.6606052759093077e-03, -8.0647646975605858e-04,
          8.3291080788223015e-04, -1.1716399949876311e-03,
          -6.0965748048628368e-04, -9.3142742142041286e-04,
          4.0252565718665838e-04, -2.3746247684589671e-03,
          -1.5256181103365043e-03, -1.6676436443583448e-03,
          -1.0706807510358219e-03, -7.0666726487262797e-04,
          6.7292204617520619e-04, 5.1926577815007734e-04,
          -2.4218835951772058e-03, 1.3220913426832215e-03,
          3.3278640120905389e-04, 3.4508606223211072e-04,
          -4.8084835749351773e-04, 1.4434242152904270e-03,
          -1.2200305731428268e-03, -2.3896661974146861e-03,
          -1.6550354548547934e-03, -2.1787250743650999e-03,
          -2.0414600774858746e-03, 1.9892561339461936e-04,
          1.1996981765393039e-03, -1.1387002588296472e-04,
          -1.6394002072646365e-03, -1.8751125576793315e-03,
          -2.0289244696807809e-04, -7.1628325727340187e-04,
          7.5719594219004138e-04, -1.0149540796044025e-04,
          7.6303124575824845e-04, 1.7658412559758061e-03,
          1.8407784697574453e-03, -1.5554975032811326e-03,
          -1.8229522783723188e-03, -9.7535023173840802e-04,
          2.4544560689926448e-03, 9.9581085740027726e-04,
          -1.9434427546321869e-03, -1.6970480958243704e-03,
          2.1071906740250533e-03, -1.3082774571176130e-04,
          -1.8581454788165160e-03, -9.3726558408674865e-04,
          3.8278193959775855e-05, -9.3052359811559280e-04,
          6.3341808361687391e-04, 1.8297159920521631e-03,
          -4.1881400766986598e-04, 9.8855530364856843e-04,
          -3.5970178809834497e-04, -1.4782941196455230e-04,
          -1.5620517306036625e-03, -8.2205061291142003e-04,
          1.6939581987880559e-03, 1.7989346164163978e-03,
          2.4790674575165595e-03, -1.8166157480815218e-03,
          5.1775310260625945e-04, -1.8730415882430944e-03,
          1.0942704021323544e-03, 1.5218307587529362e-03,
          -2.2857754524738317e-03, -1.4023582711326092e-03,
          2.6226922776886479e-03, -6.1704232991250632e-04,
          1.3746661711368361e-03, 2.1894539610025606e-03,
          -1.9326696657178419e-03, 3.2353124859687871e-04,
          1.9819782756559808e-03, -5.6531602920385348e-04,
          -2.4508495177563670e-03, -7.4041254219187535e-04,
          -2.1508997667453850e-03, 1.6055594624601593e-03,
          6.1225942643527715e-04, -9.9439284129076294e-04,
          1.3351802805340292e+01, -3.4482480884598710e-01,
          8.1845167440034006e-02, -2.0726224523193373e-01,
          -1.8871894112119909e-03, 4.6336188584760990e-02,
          2.6293958607403167e-01, 8.1492794774082212e-03,
          -3.2385015557567544e-02, -6.1707201127883540e-02,
          1.5970241767838883e-01, -1.3048790824882313e-02,
          3.8483192423748452e-01, -6.5383746834956888e-02,
          5.0597868675637175e-02, -2.2130905256907620e-02,
          -2.1193736381048016e+01, -2.6607900638036547e-01,
          1.0465159136955039e-01, -1.3846002228351409e-01,
          -3.2292253568437547e-03, -3.4381721911212787e-01,
          1.7051705348077623e-01, 5.6666352735510054e-03,
          -3.7813164109623126e-02, 1.7045268142378234e-01,
          2.0695578502652134e-01, 1.7519876256563573e-02,
          2.2579098076022075e-01, -8.5417298939476430e-02,
          3.6578876703569257e-01, -2.6173054560104367e-02,
          -5.3942220613748226e+01, -8.4756334465361377e-03,
          6.6657445974637047e-02, 3.5827372471261394e-02,
          9.3787499427664311e-04, -6.4842754773924505e-01,
          -5.4974592475811566e-02, 7.2478899263003728e-03,
          -2.2610340895208740e-02, 3.6939859779983369e-01,
          1.4470579335763967e-01, 4.7977412439563633e-02,
          -1.1686878199134285e-01, -6.3443402645928751e-02,
          5.6261680959745941e-01, -1.9430969574529052e-02,
          -5.3940087236292065e+01, -1.0621587678068516e-02,
          6.6043986006784183e-02, 3.6559071288429619e-02,
          -6.7871594168275368e-04, -6.4739781057300860e-01,
          -5.5182685302186306e-02, 3.4121962594585464e-03,
          -2.6841906339257302e-02, 3.7349902599993018e-01,
          1.4717424689696251e-01, 5.0228569174455104e-02,
          -1.1955971415941674e-01, -6.2178374226950058e-02,
          5.6353441354650513e-01, -2.0387179122577610e-02,
          -2.4124252313146427e-04, 2.4877363615886292e-03,
          -7.5216360247844097e-04, -2.1526782116795657e-03,
          9.2808946054698531e-04, -1.6185969314668064e-03,
          -5.9121378937925081e-04, 4.5369101491116772e-05,
          -7.4719041593419356e-04, -1.0338683330915921e-03,
          -4.8032411376723626e-04, 1.5732209413582921e-03,
          2.6521706382663359e-04, 2.3304900799673129e-03,
          -1.5017649121349748e-03, -2.0692888652865758e-03,
          -9.6725959234682224e-04, 2.1820100636970063e-03,
          -1.5767754148170892e-04, 2.4189522674551937e-03,
          -1.0783281659980460e-03, 1.0209789235078241e-03,
          -2.3001097548634936e-03, -2.1274692464248899e-03,
          8.9456161304354962e-04, -2.1687639280258534e-03,
          2.8031947328921073e-04, 2.3710371034066308e-03,
          -6.0810698622981295e-04, -1.2618933260747367e-03,
          3.7092201642891236e-04, 1.0098088550546194e-03,
          4.8140961262840365e-04, -1.0669161519742012e-03,
          -1.1304707922473788e-03, -2.4196166855114916e-03,
          -2.2477043500051630e-03, -1.3810526798334985e-03,
          1.9670422828384584e-03, 9.0944536716638859e-04,
          1.4339022343146126e-03, 1.6593068348584849e-04,
          1.0249338087584315e-03, 1.9945605005092936e-03,
          -1.7933371503843407e-03, -1.0891101230487820e-03,
          -1.1525161051330662e-03, 1.4890600608248670e-04,
          -2.4233640717585933e-03, -2.2553427602556757e-03,
          1.9667224899576207e-03, 1.3352376707672345e-03,
          -2.1703256481772965e-04, 4.1910831468335198e-04,
          -9.4076448987193042e-04, 4.5167164800782595e-04,
          9.2020997337662286e-04, -1.9969738270121714e-03,
          8.6464086435897335e-04, -9.8434944867371236e-04,
          -5.4708412439943857e-05, 4.8881129576822569e-04,
          -2.2084257697222967e-03, -2.2406433690984342e-03,
          2.0997905027406736e-03, 1.3098905691871158e-03,
          -5.1524074190390466e-04, 1.2901975324807748e-03,
          -1.4448185853182727e-04, 1.7211672708544292e-03,
          1.6810559842796459e-03, 1.5003125468079940e-03,
          -8.6657682583298899e-04, -2.4774554591240213e-03,
          -1.1368213253304660e-03, -1.6460584301126631e-03,
          -2.6096196010606988e-04, -1.3442444983128221e-03,
          -1.4103614653953296e-03, -4.0949982398802730e-04,
          -2.8084595323478624e-04, -1.1196277767102530e-03,
          4.7256399079016975e-04, -3.5270604333533629e-04,
          3.6098617618197704e-04, 2.3552301417568500e-04,
          -2.0932816837879427e-03, -4.7632994338508945e-04,
          7.5373850515536806e-04, 2.0986502424221766e-03,
          2.3968570590791566e-03, 8.9990812015209253e-04,
          1.4601039201062661e-03, 1.4161532285716545e-03,
          1.7817663327264011e-03, -1.3745721276578734e-04,
          2.3337101643542864e-03, -2.0155912258874812e-03,
          1.4465379875761319e-03, -1.1993295474694605e-03,
          -1.5719393422835497e-03, -1.7453130077950514e-03,
          -1.8709224091771014e-03, -8.1979465568722488e-04,
          -3.8075239438359120e-04, 1.3843740509362813e-03,
          -2.6816804773284280e-04, 4.7851084726987825e-04,
          1.9719515501807755e-03, -6.3262007666292305e-04,
          -1.2008382466389563e-03, 2.5374935846884678e-03,
          1.4285898876184599e-03, -1.2709826314687334e-03,
          3.6321847212802901e-04, -2.3140586835762923e-03,
          -2.6534489129011760e-04, -1.5529102123525203e-03,
          1.7166331936422502e-03, -1.3170981053539307e-03,
          2.1940717347313115e-03, 4.6685278128556535e-04,
          -2.1605649523331327e-03, -2.2917516727349227e-03,
          2.3114525832516651e-03, -1.6470445637892532e-03,
          -1.0470739544451333e-03, 1.3911878526150082e-03,
          2.3031807370537784e-03, 3.5074805103087669e-04,
          -2.5853343016866985e-03, -7.5870122185927214e-04,
          1.2533320898406261e-03, -1.1849988029198520e-03,
          -2.4603971727717053e-04, 6.8880553355771311e-04,
          -2.5120188816595149e-03, 1.8638589774399507e-03,
          -9.6377437951289507e-05, 1.8351852927335176e-03,
          -2.4657383898410478e-03, -2.4550951893048570e-03,
          -1.0252897745912865e-03, 1.8538810721776367e-04,
          8.1248178939244279e-04, -1.9096125258959566e-04,
          1.3302138458366371e-03, -6.8241383874137593e-04,
          2.3075912342952168e-03, -4.5316190257319315e-04,
          9.4137949129264697e-04, -2.4669016598473392e-03,
          -6.4152199328428462e-04, -2.3735563089868628e-03,
          2.2880927205109311e-03, 1.6226002810070062e-03,
          1.0521486399044111e-03, -1.8258708696867094e-03,
          1.5539244401802377e-03, 2.2415003781321272e-03,
          2.1684022094808682e-03, -5.5921848176013092e-04,
          -9.7132328412939250e-04, 8.8331188042450743e-05,
          -1.0797271486565299e-04, 1.7105785457112532e-03,
          -8.5308539354247839e-06, 2.4681818588958141e-03,
          9.1720713563351144e-04, 2.3810634912121600e-03,
          -2.0592462029126561e-03, -2.4687567449250773e-03,
          -1.9307363550376733e-03, 1.1452909513821055e-03,
          2.5155026073556243e-03, -1.5644804827838837e-03,
          1.7814269722886261e-03, 5.6101717667126705e-04,
          1.7497431170782165e-03, -9.5172002757438925e-04,
          -9.5138318435326159e-04, -1.7580516361674291e-03,
          2.4994710697193766e-03, 5.8703661321766250e-04,
          -2.0529154493978716e-03, -3.9027657999073968e-04,
          2.1341174424445966e-03, -2.2935647247968767e-03,
          4.9173864645263104e-04, 1.8764941990646227e-04,
          1.0849707004675314e-03, 9.1577627660176198e-04,
          1.4161773015338383e-03, 1.2172705132618030e-03,
          8.7053683140799290e-04, 2.5237971433592610e-03,
          -1.1059726113916988e-03, 1.3365806929208697e-03,
          -1.3398185780025963e-03, -1.0789205316813443e-03,
          5.8092710845443745e-04, 6.2927529513268922e-04,
          -4.3439112642471039e-04, -2.1728783675086191e-03,
          -1.2669587709777698e-03, 2.4553344272440977e-03,
          -2.1966951383605975e-03, -3.7418397312745681e-04,
          2.2209066428279947e-03, -9.1923417761622577e-04,
          4.1668225676677514e-04, 2.1220101771658758e-03,
          -2.0411870282356576e-03, 1.4194077631153454e-03,
          -4.9668027406114920e-04, -7.2819290416302918e-04,
          -1.9737715586577924e-03, 1.1593684562183687e-03,
          2.2233036455494700e-03, 3.4340799571512233e-04,
          -2.2467681604229572e-03, -2.0597512842717926e-03,
          -1.7555889473734876e-03, 2.4275365824525720e-03,
          1.5488577536193211e-03, 1.9593541453795504e-03,
          -8.2127941418157929e-04, 1.3661849253048140e-03,
          1.9414147939635241e-03, 1.8760284513751019e-03,
          -7.7854873258374215e-04, -1.9084647273593367e-03,
          -1.3379311678947004e-03, -2.4555050083420997e-04,
          -9.2323375222310333e-04, 1.2058151807335736e-03,
          4.7476306640594184e-04, 1.9741749484039118e-03,
          -1.8259305446407669e-03, 7.4362024545173474e-04,
          -1.8557086918260795e-03, 2.3710778448023761e-03,
          -4.7575113827717401e-04, -1.1018142296284794e-03,
          2.2128192468988373e-03, 1.4699401590521392e-03,
          -8.5141202710720186e-04, 2.0401838969458943e-04,
          1.5705319296688992e-03, -4.5764852451189584e-04,
          2.2916385218403070e-04, 1.4316520603308723e-03,
          -6.8792424976474157e-06, -1.4507140341544182e-04,
          -1.8197737746473020e-03, -2.5218236502480905e-03,
          -3.0603504798586099e+00, -4.4964349858861646e-01,
          7.6892905443409570e-02, 4.3363665721725841e-02,
          -1.9988257623142105e-03, 7.6229667136805762e-02,
          -1.1526670989013211e-02, 6.1575557002015125e-03,
          -2.2782427006594178e-02, -3.9111256042489426e-02,
          1.4527290177804880e-01, 2.7773938898632975e-02,
          -2.9573150068520040e-02, -6.3052107611681077e-02,
          4.9469979834512408e-02, -1.9307289332591872e-02,
          -3.5396918427605168e+00, -4.7789487788529106e-01,
          8.9286677568492095e-02, 2.5470843788124958e-02,
          -1.0818764078500508e-02, 5.1391348696977089e-03,
          -2.3021604736598467e-02, 4.6740853264911767e-03,
          -2.6151179378333819e-02, -4.9349547646767640e-02,
          1.6767293429768110e-01, 2.9177311801153426e-02,
          -3.1974684503406105e-02, -7.1826288987552472e-02,
          5.0420369965924423e-02, -2.1518942809776020e-02,
          4.1280725340760602e+00, -2.5149702754413850e-01,
          1.5100061138122420e-01, -5.8147220851705865e-02,
          -2.9551723121777521e-02, -1.7123096128254769e-01,
          9.0099571378901386e-02, 1.1143083060093662e-02,
          -4.6868913346477525e-02, -9.2819118816601529e-02,
          2.8994585843712334e-01, 4.9313259012130573e-02,
          -4.7807933099448474e-02, -1.1955838780522644e-01,
          2.7719534762666663e-02, -3.7927928375608974e-02,
          6.3840790366079130e+00, -2.1952629054182446e-01,
          2.1047925122139499e-01, -2.3582132402882698e-02,
          -2.0507174977641981e-02, -5.2114382757909375e-02,
          1.4099552584497837e-02, 1.0769465237777174e-02,
          -5.9920128090085761e-02, -1.2157942206368162e-01,
          4.4503409713351927e-01, 7.3982710691447351e-02,
          1.2668755116084429e-02, -1.5483484145021514e-01,
          -1.0418041197177225e-01, -4.7187534994311907e-02,
          -1.1640151370384228e+01, 7.8655943843426335e-02,
          4.2172032684151262e-01, 5.1376043700559919e-02,
          -1.0831755642729982e-02, 8.8739219712522990e-03,
          -1.4314016706227159e-01, 1.7343928250167333e-02,
          -8.0928432310293952e-02, -5.6997985326322304e-02,
          6.8413014479132561e-01, 1.4634538376619335e-01,
          8.3946895564974505e-02, -2.1926260546351781e-01,
          4.9630202438295440e-02, -6.7248744796231649e-02,
          -2.4265129158607667e+01, -1.0131341334746026e-02,
          8.2278314185229273e-01, -2.0349608388270890e-01,
          -4.8287366943961886e-02, 9.0888069903501782e-03,
          -1.4928371766034362e-01, 2.5894926710686672e-01,
          -1.2869956648669359e-01, 6.0108195678092106e-02,
          6.5963805885073468e-01, 1.1883477776239262e-01,
          3.3711972384350902e-01, -5.9511581042252593e-01,
          -1.3846091181251105e-01, -1.9457699647309758e-03,
          -1.9317129620828819e+01, -2.8932807491892315e-01,
          7.8090947889325668e-01, -2.1570270465144845e-01,
          -2.0143702033561414e-01, -1.9988000840767162e-01,
          1.3203338933577982e-01, 5.2307736337951638e-01,
          -1.5046957700642241e-01, -2.4331950652796724e-02,
          8.2231755668285911e-01, 6.5459268095590473e-01,
          2.6809639456421080e-01, -5.8993104009724895e-01,
          -3.6201083401045825e-01, -8.2648027591957024e-02,
          -1.1435268635483196e+01, -1.7075277702774710e-01,
          5.1051224504340753e-01, -1.9663384213838907e-02,
          -3.6110740474692554e-01, -2.2502688962933204e-01,
          1.1834918087296893e-01, 4.6832900704236452e-01,
          -1.5694727118444721e-01, -1.7086126655546546e-01,
          8.9985040995762378e-01, 7.6653500853689904e-01,
          9.5647066313568771e-02, -3.9231354272221619e-01,
          -2.7226759027534170e-01, -1.2128929907523923e-01,
          -1.6988613215784213e+01, -4.1926346674674203e-01,
          5.5015338351384513e-01, 2.1379343829496347e-01,
          -1.9907617277913342e-01, -3.9360519273502559e-01,
          -2.1512221840509550e-03, 1.5051389154227351e-01,
          -2.0921066597848592e-01, -6.4266115241667615e-02,
          9.6925170708312092e-01, 2.6469954924588357e-01,
          2.8342560720967580e-01, -6.0950278616787890e-01,
          -1.0321674838400915e-01, -4.6849228373011538e-02,
          -2.8431775500730588e+01, -2.6972475243577798e-01,
          4.4017534508796047e-01, 1.1397352414569846e-01,
          -2.4586568142917048e-01, 3.9846893493603305e-02,
          -2.1758315112299617e-01, 7.6999465819257179e-02,
          -1.7601237464306213e-01, -1.4185269935366618e-01,
          9.7664891346006211e-01, 1.6187045965978666e-01,
          3.0258096943320539e-01, -4.5880359203386650e-01,
          3.3385728429982386e-01, -8.0499460311845891e-02,
          -3.9715424912038443e+01, 1.4973397750608156e-01,
          6.0457395103433793e-02, -3.0242755323663773e-01,
          -2.0268971196591953e-01, 2.6121804156812456e-01,
          -2.4107816126368833e-01, 1.0351886209270304e-01,
          -1.6398324236107442e-01, -1.3135950953358305e-01,
          9.5725449726397138e-01, 1.7606325590793800e-01,
          -6.8068757255253787e-01, -4.4114252964337297e-01,
          4.4774245871238161e-01, -2.9799241998232424e-02,
          -2.4474360160786382e+01, -3.0006198860670680e-01,
          -1.1329056470329422e-01, 2.2565338840453664e-01,
          -7.3470589985660500e-02, -7.5244864279995008e-02,
          -2.4781467567550014e-01, 1.3977061123512061e-01,
          -1.5091658260186760e-01, 1.4784128175440092e-01,
          8.7783088165449852e-01, 2.1103706475746881e-01,
          7.1016326483111222e-02, -4.7219067129093423e-01,
          -3.9470030760839525e-01, -7.9788656781251445e-03,
          -5.8898691327176946e+00, 2.0532182292200676e-01,
          2.3174565357667457e-01, 2.6166824813969519e-01,
          6.4152943975364612e-02, -1.3268218238364601e-01,
          1.5866760542157080e-01, 5.3544643974402818e-03,
          -1.5006827486897470e-01, 5.2593657828353158e-01,
          8.9935351474746361e-01, 3.2791323928752886e-01,
          -3.3439859016725271e-01, -4.4718769497199268e-01,
          -1.9560946299721382e-01, 7.5718516883156839e-02,
          3.4720596072174210e+00, -1.9773489835378322e-01,
          4.6557370831502726e-01, 1.4692339999489212e-01,
          9.7934183043751080e-02, -7.1616578079452570e-02,
          8.4987430325520349e-02, -1.1378201840411179e-02,
          -1.4233550015644902e-01, 1.9380016126982172e-01,
          8.4535488309068663e-01, 2.5909205858638917e-01,
          -4.5479512741138267e-01, -3.9081697199779686e-01,
          2.2538958933618286e-01, -6.5939791469440359e-02,
          -7.3485908252340275e+00, -2.1562732181196417e-01,
          3.5330441843752558e-01, 1.5784003641712152e-01,
          2.5667390195603817e-03, 4.3206729572728714e-01,
          -1.7329391936497809e-01, 4.9617074979188963e-02,
          -1.2111366312550403e-01, 2.6828697695756482e-01,
          7.1301451188780196e-01, 1.4667434099499405e-01,
          5.7077292085596580e-02, -3.0938979811653433e-01,
          1.5354242734985799e-01, -1.2855282271149693e-01,
          -1.6081714705351619e+01, -8.0625055285537262e-02,
          2.7830565230620413e-01, 9.0607420547893849e-02,
          -2.3707094928802305e-03, -1.7246498996051345e-02,
          -1.2642839444916579e-01, 3.5172332305133489e-02,
          -9.1067426311855798e-02, 1.7032509688987416e-01,
          5.3346185135032798e-01, 1.0318047779573074e-01,
          6.8759304916896649e-02, -2.2022487040335476e-01,
          1.7918264557591843e-01, -1.1295589862730697e-01,
          -6.2180390819188549e+00, 1.8539722649642559e-01,
          2.4371974087159032e-01, -1.8233759547212722e-01,
          1.8270495328755063e-01, -1.3761958804931729e+00,
          -1.2527154154534706e-01, 1.0205833914182832e-01,
          -7.6931827002857014e-02, 3.0503824705674598e-01,
          4.6478424386725870e-01, 1.3612943512292236e-01,
          4.5856072335909376e-01, -1.9494524931598864e-01,
          1.5876165348805757e-01, -7.3611953539624228e-02,
          -6.3774969071255159e+00, -2.6568867502210791e-01,
          1.5269457694167829e-01, -1.4804771698562968e-01,
          2.6915812279611710e-02, -5.3843634111565286e-01,
          -8.4164326534063000e-02, 1.2485666458065892e-01,
          -4.9003363154695834e-02, 1.2904645233875597e-01,
          2.9032881559635476e-01, 5.9962319933457797e-02,
          3.1360715872704997e-01, -1.1980571461152184e-01,
          9.3949883514938437e-02, -3.4977640829471961e-02,
          -5.9447435819902745e+00, -2.1353515383813870e-01,
          1.2874823348695202e-01, -7.5820347903415686e-02,
          -2.7136932617015927e-02, -4.0485865447990543e-01,
          -8.8476358847091208e-02, 1.3331889190381757e-01,
          -4.2910807930510220e-02, 2.2234848265899981e-01,
          2.4936000545446110e-01, 4.4785080887133753e-02,
          3.3805753073123612e-01, -1.1942372552598522e-01,
          8.0527282381862686e-02, 9.6272872871264997e-03,
          -3.5421687541165636e+00, -3.0493113136747397e-02,
          8.4708098835692969e-02, -3.1006830452221343e-02,
          -4.2798784319611843e-02, -6.0305233822241566e-02,
          -3.9460064842232814e-02, 3.2228905435692387e-02,
          -2.7187620108379298e-02, 6.2813492694109616e-02,
          1.5893451877424597e-01, 2.8679325936479379e-02,
          8.8867169029052659e-02, -9.2445115932968114e-02,
          5.1932211410081558e-02, 5.3616803805598898e-02,
          -7.1767749264342454e-04, -2.2013487770660067e-03,
          -1.2908968984583105e-04, -1.2082100701739731e-03,
          1.2999188819735254e-03, -2.2272011138761917e-03,
          8.5173981194804570e-04, -7.9111968335685099e-04,
          1.3453505977915991e-03, -8.0736589409045726e-04,
          4.9572008014307442e-04, 5.9038086749316058e-04,
          1.0756094858699258e-03, -7.8599214764929742e-05,
          2.3859395871935140e-03, -2.4621537546451488e-03,
          -2.3186190408730914e-03, -1.1481768115812747e-03,
          -2.3957528295516541e-03, 8.1477858368153024e-04,
          1.6162164093209100e-03, -1.2324033075654314e-03,
          5.5702880153970656e-04, 2.7989358316551352e-05,
          -6.7587166761139974e-04, 2.3002794730872787e-03,
          -2.0159167533900443e-03, -2.4200130461303894e-03,
          -8.0033172987654705e-04, 1.2526521400967403e-03,
          6.9718479329034791e-04, 8.2867189896107659e-04,
          8.8453520933550432e-04, -2.5399744899387597e-03,
          -4.3838408157373570e-05, 9.5201568271382239e-04,
          2.5243701024111019e-03, -1.5657318377634343e-03,
          1.6333317814173148e-03, -1.1773673957790737e-03,
          8.1126595448112492e-04, 8.7091440825385022e-05,
          -1.0894953917399055e-03, -2.0159300426431971e-03,
          -1.6216906607234391e-03, 8.1387628379363968e-04,
          1.3450615641742440e-03, -1.3063302220136753e-03,
          1.3651303017381765e-03, 7.3747654833622033e-04,
          1.0618483670935283e-03, 1.1177272412847925e-03,
          5.5160535070703908e-04, 1.5459323031063474e-03,
          -1.5596239532613121e-03, -1.6285416180879932e-03,
          2.1924207049575763e-03, -5.2937124473805670e-04,
          9.9933668022250026e-04, 1.7813259903243226e-03,
          1.6835579942556778e-03, -5.0656763419242620e-04,
          1.4009014174771372e-03, -6.0353694082771023e-04,
          1.1433487698548335e-03, 1.6306549928775300e-03,
          -1.6600860751312082e-03, 1.4005453545268094e-03,
          5.9487861770095773e-04, -1.6912038810031427e-03,
          -1.1925308375629387e-03, 2.4225681777359401e-03,
          1.4854382460654627e-03, -1.7029625321978140e-03,
          -7.6047296591924204e-04, 9.4121770577206996e-04,
          -2.0078628177650466e-04, -2.3084463908182246e-03,
          2.1649341992783129e-03, -1.5798469812624161e-03,
          -1.9032307046960403e-03, 1.6707762479479978e-03,
          1.1880375974485248e-03, 3.4894819231863825e-04,
          -2.0576643736647756e-03, 4.8004707372084386e-05,
          8.9347029627766987e-04, -1.3490275790089268e-03,
          -2.2395203170734674e-03, -7.6454565620692289e-05,
          -1.9990451293166699e-03, -1.5734237366835375e-03,
          7.2643260593135094e-04, -1.4711839249790235e-03,
          -5.9774958049317746e-04, 2.1423828890747493e-04,
          3.5203929978329018e+00, -3.2533378858693882e-02,
          7.5664531197923740e-02, -2.2937164763581014e-01,
          -1.7639492782794775e-03, -1.5631704672267469e-03,
          -2.5279034229519173e-02, 6.9693634976587737e-03,
          -2.6157940934563102e-02, 2.2171506640119482e-01,
          1.4749091772871992e-01, 2.0406735958026802e-02,
          3.7733730870244446e-02, -6.0547571671911472e-02,
          -1.7401688173301386e-01, -1.9759716366367450e-02,
          -8.2538799005837049e+00, -1.7440844764356064e-01,
          7.5967625160863986e-02, 4.9991848907602549e-03,
          7.8724762832191597e-01, 5.2470056156507427e-01,
          -6.2110466331744357e-02, 1.3021127677917796e-03,
          -2.4448404204837647e-02, -1.6081549109444808e-02,
          4.9684188154511877e-01, -4.0142257986785818e-01,
          -1.4584801820881318e-01, -1.2997247993199029e-01,
          5.8058185284972662e-02, -2.3263140896240372e-02,
          -4.4788839061417782e+00, -3.3012077498507797e-01,
          1.7173383764566358e-01, -5.2490377401936128e-01,
          -1.6177909365518595e-02, 2.0049320349544559e-02,
          -7.7845343902721159e-02, 7.5418888657881600e-03,
          -4.0010223697013646e-02, 1.2163578101756939e-01,
          5.0625773661760409e-01, 1.1221102812888548e-02,
          2.3261545822953664e-01, -9.9768752151301585e-02,
          -8.8070667704233066e-02, 6.8597177243161375e-02,
          3.3132012577542964e+00, 8.4273820732840010e-01,
          -5.0364297380871659e-01, 5.7303533315530975e-01,
          -3.3099861444856514e-02, 9.1672921268044646e-02,
          5.2881833327771480e-02, 1.2277319773952577e-02,
          -2.5008898026118004e-01, 7.4098969144894444e-02,
          -7.3499088206544627e-01, 6.2316573768598532e-02,
          -3.2548789069901679e-01, -1.5739294672445148e-01,
          5.2492181301466094e-02, 1.1300346657331117e-01,
          -3.8560672874157994e+01, -3.1949559893827401e-01,
          -8.4861027302274447e-02, -1.8873631914987457e-01,
          -1.6913398402048560e-01, -2.3862118959421727e-01,
          -6.1875103850509629e-02, 6.1604392155531840e-01,
          -3.2358256631576521e-01, 3.4210286982582744e-01,
          2.7150766974412466e-01, 5.8494043064306622e-01,
          2.0814543779762937e-01, -4.2642732705946856e-01,
          -2.3975126647927619e-01, 1.0280152651400724e-01,
          -5.0465042491392872e+01, -3.9647475849488512e-01,
          1.7449440459349452e+00, -1.6606575480907591e+00,
          -2.3466696194991063e-01, 7.0058021468889831e-01,
          -1.8096834436042825e-01, 4.4163120394047328e-01,
          -2.2630223247690709e-01, 3.5250791267700449e-01,
          1.7714378249278750e+00, 5.8835097902922051e-01,
          1.0188877820425102e+00, -5.6639852195056795e-01,
          1.5572976731361818e-01, -5.3645871474073764e-02,
          -6.8750858343304117e+01, -1.2883578888347416e+00,
          1.3000810857900966e+00, -3.1023760847552060e+00,
          -2.1312212365610868e+00, 1.5401605417292671e-01,
          5.0449941076080140e-01, 5.1667558486177234e-01,
          -2.6203795417045345e-01, 2.5611024852468595e-01,
          5.7393547563085245e-01, 1.1016303479797509e+00,
          1.6440095079960812e-01, -6.4221978765626342e-01,
          -4.1684313229991732e-01, 4.4372570259418397e-02,
          -8.5591053271415518e+01, -5.2155731043457643e-01,
          1.8737925949913679e+00, -1.8779529978283562e+00,
          -2.4140845846429020e+00, -9.0010716956947656e-01,
          3.6840675423615249e-01, 4.9288361472740144e-01,
          -3.3805057932521371e-01, 3.2985565421367463e-01,
          1.6603960707149232e+00, 3.0040876750390710e+00,
          1.0497964146997554e+00, -1.0906331276498065e+00,
          -5.0142449242145962e-02, 2.2403883935456437e-01,
          -9.1953157261365547e+01, -4.9300536382857241e-01,
          1.3034042912796933e+00, -7.1395160405963221e-01,
          -1.4104476440007927e+00, -1.5082609650097154e+00,
          -1.2728520338514873e-01, 1.3478520029434469e+00,
          -4.8637748492657612e-01, 1.1559357625277031e+00,
          8.7810095166124824e-01, 1.6306177330117440e+00,
          8.2724582624814702e-01, -2.0903501014500794e+00,
          -6.8828401191411773e-02, -3.7945784030146739e-04,
          -9.3269838867791378e+01, -5.3799959281876752e-01,
          2.8791250828706533e-01, -2.4016563395496182e+00,
          -1.8251231014051543e+00, 9.4490561063145836e-02,
          -2.5072923753995263e-01, 2.0678961873173085e+00,
          -4.0042491489832377e-01, 4.2530350883231693e-01,
          -3.5764850686110072e-01, 2.2896389507059114e+00,
          1.7361497658238738e+00, -1.2895751317810786e+00,
          7.4824785786299397e-01, 7.6855297489975893e-01,
          -9.5476081807139494e+01, 2.7569297491892984e-02,
          3.1680279415480839e-01, -1.9036254093844573e+00,
          -2.4666371667291944e+00, -4.4563585699266417e-01,
          -4.9793454778584917e-01, 2.4604215035434227e+00,
          -5.9113870981244210e-01, 8.3664485344805861e-01,
          3.1139203058529658e-01, 3.9744863504887391e+00,
          1.7427748455586980e+00, -1.8446074312938174e+00,
          -1.2124136039322686e+00, 9.4428204994912834e-01,
          -8.4212960540467066e+01, -8.0179304525658524e-01,
          7.2443564031489671e-01, -2.5139177038422740e+00,
          -2.0959185081522045e+00, -4.5370996050507362e-01,
          1.9390772400651959e-01, 3.3513504443079181e+00,
          -1.0515669142176025e+00, 5.2488911388007331e-01,
          1.5035519832860595e+00, 3.6596202640726792e+00,
          2.6561018632251803e+00, -9.0602469816179843e-01,
          -1.3745799290743157e+00, 8.9927693476163473e-01,
          -8.1777244485320821e+01, -4.8688281106970328e-02,
          3.9451960636791119e+00, -1.8063551041426973e+00,
          -2.9748026044845441e+00, -2.2047387591567080e+00,
          1.4661488803482969e+00, 4.7030598022064147e+00,
          -9.0133767348380334e-01, 2.4593888496857177e-01,
          2.8006207081362766e+00, 3.7553192281343817e+00,
          2.7478705782817459e+00, -2.5233027341237242e+00,
          -2.2201092210626783e+00, 9.4767142963747752e-01,
          -7.3474972254248712e+01, -2.2360055743106000e-01,
          -9.0206241676962493e-02, -2.6024777165865105e+00,
          -3.5845152314839384e+00, -5.2649271715159573e-01,
          9.4538098654119063e-01, 3.4250814723234702e+00,
          -9.1929459712673567e-01, 1.7051476519796668e-01,
          -3.7957960306888738e-01, 3.3829848868630346e+00,
          1.8365659103464291e+00, -7.7599002114602300e-01,
          1.7258570068398582e-01, 1.1416759332373778e+00,
          -2.1938050026369574e+01, -1.0197855346176177e+00,
          1.7585757183425226e+00, -3.3205406561839417e+00,
          -3.9297727787818273e+00, -1.4383067639595923e+00,
          -1.0784214795520383e-01, 2.8372312299349272e+00,
          -1.1996544323070317e+00, -7.2805386156913621e-02,
          1.6011586210154596e+00, 4.0150975803473754e+00,
          2.1056232152551684e+00, -6.6246097212480082e-01,
          -2.8619995707441843e+00, 2.9728370241010399e-01,
          3.1507534674264197e+00, 3.4798360186701141e-02,
          3.3421758007869564e+00, -2.5418649597763228e+00,
          -2.5724512091352056e+00, -7.5535986533601751e-01,
          -5.1516752807342103e-01, 2.6945036395190294e+00,
          -8.9129661859999065e-01, 1.4729122295648223e-01,
          1.1385532301123300e+00, 2.7526415112465834e+00,
          1.5073911864782445e+00, -1.5238150083599651e+00,
          -2.3726195984748150e-01, 8.7291914098935475e-01,
          3.5416864150412968e+00, -5.7807835991453060e-01,
          3.5055030569061424e-01, -2.9820410860535884e+00,
          -3.4424129768557803e+00, -1.9006620761810502e+00,
          1.0538157275283542e+00, 3.0908019003393261e+00,
          -1.0391105410835826e+00, 4.1925908034791798e-01,
          1.2867170423639145e+00, 2.1547366948778364e+00,
          1.0482847672894553e+00, -2.1659810921241598e+00,
          -1.5803653473526522e-01, 1.0464554440782141e-01,
          2.3969592850338859e+01, -7.0309545617784530e-01,
          1.7969490232219547e+00, -2.2633324745074351e-01,
          -7.2152891337703751e-01, -1.7429470463250700e+00,
          2.4022880112796424e-01, 3.6555458861677832e+00,
          -5.1545725970282485e-01, -9.0565459347347876e-01,
          2.9860599153907841e+00, 1.0945190836910865e+00,
          2.4250392633621911e+00, -1.2520011659868602e+00,
          -4.2306542659414541e+00, 4.6625856488089773e-01,
          2.8479039797462438e+01, -4.0271669197709009e-01,
          1.9396669206518893e+00, -1.1221155835550112e+00,
          -3.5242507725107569e-01, -7.1273589842326091e-01,
          -1.1917479862690054e-01, 1.5099239239838134e+00,
          -4.6977457706647513e-01, -1.6600321900279727e-01,
          1.9534379663337846e+00, 7.3220293363668743e-01,
          2.3092852919723242e-01, -8.3782571872227063e-01,
          -1.6985654259586476e+00, 3.7402050592483804e-01,
          1.3539542979876014e+01, -2.2583711373959317e-01,
          1.1664962874626201e+00, -6.2670724180835846e-01,
          -8.0034846818218863e-01, -1.6040540437455403e-01,
          1.9756830898827293e-01, 2.6522536310884764e-01,
          -2.8499621658785185e-01, 4.0694401794194168e-01,
          1.6369027172744410e+00, 3.9208100265598339e-01,
          5.6959936856436144e-01, -1.6771016533830443e-01,
          -9.0033055728447153e-01, -9.7905001867990740e-02,
          3.5368699965202479e+00, -3.5007082910521736e-01,
          9.2181045582580434e-01, -2.9546681488522830e-01,
          -8.9960584000980626e-01, 3.6607823839677262e-01,
          -1.8065099908973575e-01, 1.6948009443710543e-01,
          -1.9070740938966560e-01, 1.8547088209090176e-01,
          1.1731795529487548e+00, 1.4628064717455810e-01,
          1.0099659926831885e-01, -4.2189674316412645e-01,
          -6.3774727174509205e-01, -2.1865638237058152e-03,
          -5.7510727453886146e-01, -8.6070717608054459e-02,
          1.1659736718607858e-01, -3.5877665089664157e-01,
          -4.2162521786637280e-01, -5.0685671380710180e-02,
          4.6142441570911580e-01, 2.9784156184523009e-01,
          -1.3702508895922569e-01, -2.8327978253006526e-02,
          6.9192119646624428e-01, 1.1802671938470667e-01,
          -3.7251876231804887e-01, 5.0420705241976588e-02,
          -5.9924591066019584e-01, 6.8456075981179684e-02,
          -1.5565759619754662e+01, 7.1913141350762627e-02,
          -5.6570708383632248e-02, 1.4544882475834351e-02,
          -3.8422429077542891e-01, -6.3113913511855649e-02,
          2.3860302029312316e-01, 4.0140286214057470e-02,
          -9.3079960390494113e-02, 1.2440523510635482e-01,
          3.9958075682442795e-01, 6.9758137946555138e-02,
          -1.8910450341697829e-01, 3.9684866662681584e-01,
          -9.1353599954160630e-03, -5.5061671765361274e-02,
          -2.5363292204854236e+01, -1.6304249632352144e-01,
          1.2838287447808175e-01, -7.9060784568178541e-02,
          -6.6590760274672931e-03, -2.9502662784916794e-01,
          4.8611349949655619e-01, 4.5506313595805085e-02,
          -5.9956259979021195e-02, 2.1174204975580968e-01,
          2.4132166287669712e-01, 3.9907310311424089e-02,
          2.0591011564376852e-01, -2.8252585265997021e-01,
          -1.7740639550888868e-01, -5.0831866363608945e-02,
          3.2998540035483715e-04, 6.0167785278077038e-04,
          -4.0685606894521118e-04, 1.5951915064624398e-03,
          -1.7191430953745235e-04, -1.3917692001144948e-03,
          2.1699050961666590e-03, -1.0755390853381354e-03,
          -2.3571021632487672e-03, -2.4048004744881327e-03,
          -7.5934740620637231e-04, 1.2378947969164267e-03,
          -2.2675515819984833e-03, -1.1862660665381500e-03,
          -1.1988231572330533e-03, 2.4676579428876675e-03,
          -3.5347666155575937e-04, -1.7737264925316290e-03,
          -1.6228698260411045e-03, -8.4354710266182397e-04,
          -1.9728655340531974e-03, 2.1940279666952085e-04,
          1.7154765812284051e-03, -1.5650210976543820e-03,
          1.6832930110595344e-03, -9.9160827738089532e-04,
          -1.9392122402860960e-03, -1.4661804347284252e-03,
          5.0167518034379434e-05, -5.1585495378928025e-04,
          -9.0625338697510592e-04, -1.6116701481461767e-03,
          -2.2764213583332665e-03, 8.7220600607948277e-04,
          -1.1037697179448526e-04, -9.6115295476287374e-04,
          -1.3229107483297522e-03, 1.6505614410487932e-03,
          6.2707697986556332e-04, 9.1284837717896380e-04,
          1.7096480975932876e-03, 1.1582037525666024e-03,
          -4.5886626213355596e-04, -1.9553817371762931e-03,
          -2.3998041243284895e-03, 1.5794345423041918e-03,
          -8.0737597022118989e-04, -2.5314447675311596e-03,
          3.7389726555562012e-04, 1.3269716539488004e-03,
          -9.1232285202045562e-04, 1.1787731656568055e-04,
          -2.2775562204206904e-03, 9.3676299558403053e-04,
          -1.7441842056841465e-03, 1.8040763478516188e-03,
          -2.5439846374946252e-04, 1.1991956077653269e-03,
          5.8627454039988816e-04, -2.1253291006599262e-03,
          1.5219028612306398e-04, 6.1319020051538631e-04,
          -8.9577664018570407e-04, 2.5869885175210812e-03,
          4.4114010823684850e+00, 2.6344940537090730e-02,
          5.2869213963499737e-02, -2.2761243023659858e-01,
          -3.9805167139318434e-04, 1.4359803781592393e-03,
          2.0984055998137373e-02, 4.7905248000997078e-03,
          -2.5762479831553612e-02, 2.1750830740769189e-01,
          1.2992649430525069e-01, 5.5096477622582185e-02,
          2.8717461530104994e-02, -6.3731864369040131e-02,
          -1.7016685621323505e-01, -1.9405948203800812e-02,
          -1.3775268859405740e+01, -1.1557053632581400e-01,
          1.5973365038404788e-01, -1.5035783729999941e-01,
          6.9661792649918108e-01, 4.4337926979885273e-01,
          -1.0807917316636270e-01, 1.5301288739612209e-01,
          -3.8478783843532517e-02, 9.5652138971104070e-02,
          5.0625321667120904e-01, 3.7477379652473120e-01,
          -6.6237860198755305e-01, 2.1103981871014660e-01,
          -1.3627519951021147e-01, 1.3419671188728232e-02,
          3.0857441008938311e+00, -3.9208828639592863e-01,
          -1.2374952559192501e-03, -6.2969673585895738e-02,
          2.2800451654500620e-01, 1.1231284668101157e-01,
          -4.0790876815730577e-02, 3.4877908002835334e-01,
          -3.6937200186584462e-01, -2.7603018778331873e-01,
          1.7818269155836802e-01, 3.6648484870622144e-01,
          -3.5808325016006982e-02, -6.1640689364109691e-01,
          -2.8663735187229827e-01, 5.7798394682760122e-02,
          4.6430917642970728e+00, 2.5460396248041450e-01,
          -9.2085088271104298e-01, 5.2020601311253201e-01,
          -5.8020263443401898e-01, -1.2655620698224118e-01,
          -3.9798164495946059e-01, 2.5411677463998755e-01,
          3.3934260434387370e-01, 3.5141761453348636e-01,
          -1.0730266010136875e+00, -8.0029676835969399e-01,
          -3.5114984474621114e-01, 7.9380338885768364e-01,
          3.0205697871926152e-01, 1.1899514248898379e-02,
          -3.1619328330689441e+01, -5.1368372104832427e-01,
          3.0285014041751213e-02, -2.7506921655291344e-01,
          6.4567932420734853e-01, -3.2665521417266352e-01,
          6.7655203469696279e-01, 9.4231123716323706e-01,
          -2.7317589525170222e-01, 4.4267973840984215e-01,
          4.2569336709927041e-01, 9.4404317097947488e-01,
          -6.4486335376517001e-01, -4.3744742023577993e-01,
          -6.9778323504134032e-01, 3.1850370615081564e-01,
          -2.3586595897299194e+01, 3.4803035149547884e-01,
          -3.5091636891646669e-02, 1.1775739526980307e+00,
          -8.6085339589007737e-01, -1.4447649131758140e+00,
          3.7125467604348716e-01, 1.5862754861122195e+00,
          6.3790876592875037e-02, 2.7367018661110781e-01,
          -3.4094506623679155e-01, 1.1256412692130855e+00,
          7.3960904880312806e-01, -8.0640733923335484e-02,
          6.1457579345855817e-01, 3.5060119150057040e-01,
          -4.4495829628792073e+01, 9.7689529690936527e-02,
          -1.3197418026600933e+00, 3.0219326156794152e-01,
          1.2793207349074105e+00, -2.5434232299574151e+00,
          -7.8337844628457787e-01, 3.9041234037823673e+00,
          -3.6171314572800109e-02, -7.7214048992766002e-02,
          6.4480475587137931e-02, -2.6791847928773976e-01,
          -5.4778906722673015e-01, -5.1246298841111815e-01,
          -6.6986960619005675e-01, 1.7462974230759196e+00,
          -7.0942787737284860e+01, -1.4102625463567725e-01,
          3.3374282155660040e-01, 5.2829592147359508e-02,
          -5.9674978068138218e-01, -1.5321005546316346e+00,
          5.2235805447086858e-01, 4.6228125020263136e+00,
          -6.7329876822609186e-02, 1.5942555417607938e+00,
          -4.3695786967815470e-01, 1.0261640903294253e+00,
          -6.9244848835225892e-01, 1.2737924895365524e-01,
          3.9142386896164083e-01, 1.2877827834368529e+00,
          -8.1176969480959343e+01, 1.1176888950668999e-01,
          -1.1140194640407153e+00, -1.6590478488849597e-01,
          -5.0068744927053943e-01, -2.6001281281185991e+00,
          -7.5753125496390472e-01, 4.9441786209744043e+00,
          1.7682337316461219e-01, 1.2619997779333978e+00,
          -4.0726279222687199e-02, 6.8423537045712801e-01,
          -4.8509689683458902e-02, -1.8127158718142042e-01,
          -4.5050928877835750e-01, 1.3098162030817335e+00,
          -1.1609456191305705e+02, -1.3445037531078161e+00,
          5.7644211997404804e-01, -4.6289661226535839e-01,
          -9.9310178953905581e-01, -2.8035510526534360e+00,
          8.3149267015357309e-01, 7.6139769332246869e+00,
          2.7193900175382124e-01, 2.6171608347913922e+00,
          1.0497863088152286e+00, -1.5656392302540459e-01,
          -3.7878466496980301e-01, 6.6447934567032796e-01,
          4.9243699725616230e-01, -4.9601018550738379e-03,
          -1.4272878736376336e+02, 7.1475031863111460e-01,
          1.9379505001863245e-01, 5.9908268106270768e-01,
          -1.6752278013883906e+00, -3.2985526203018325e+00,
          -6.0231478562790419e-01, 4.6965399787938624e+00,
          7.2461612306018741e-01, 4.0560494657857200e+00,
          1.5458325984034498e-02, 2.9998287975123006e-01,
          3.6604967637870389e-01, -9.9054004122254213e-01,
          1.2991303226695583e-01, 1.9003534983522110e+00,
          -1.3656365146666988e+02, -8.1328509252505177e-01,
          -1.7108109652336794e+00, 4.2328854770623975e-01,
          -1.0948357357600886e+00, -3.3517116741388504e+00,
          1.1290901379565175e+00, 1.4846915066879613e+00,
          -3.7737564537530736e-02, 4.3610979053348125e+00,
          -1.3147181850429690e+00, 1.9213488916070665e+00,
          1.4443962487949905e-01, 5.0681007107181736e-02,
          1.9172203744808243e+00, 1.9766570157114618e+00,
          -1.3146352880938755e+02, 3.7503856045221090e-01,
          -4.0478758323181419e-01, 1.2254105433562072e-01,
          -5.3610050789161934e-01, -2.0080787595463110e+00,
          -7.8674865994221677e-01, 1.7208007667907037e+00,
          8.3204444794764798e-02, 4.2660680519688254e+00,
          -4.5294046466523574e-01, -4.0394356553953531e-01,
          8.0052193508472536e-01, -6.6516630720679348e-01,
          -1.0289397571136458e-01, 1.7442817642446158e+00,
          -1.1322784854894573e+02, -8.9285553870867818e-01,
          9.3964562592103484e-01, -1.1342287262651211e-01,
          -2.1675359058954147e+00, -3.6097728721757401e+00,
          -1.0819836108264062e-01, 1.2675950918535164e+00,
          -4.4167404144388117e-01, 3.7704635738791179e+00,
          4.5044233370570835e-01, 1.0412302204856505e+00,
          2.9279256569543261e-01, 2.7897605648902885e-01,
          -9.0950120976774085e-01, 2.3157215842912374e-01,
          -8.4330877626340623e+01, -2.5694848377827029e-01,
          -7.8183585326596874e-02, -4.4430785390382205e-01,
          -7.4816582920754637e-01, -2.1860516102963659e+00,
          8.0693478893149306e-01, 4.0037542451687780e-01,
          2.8005547527026338e-02, 4.4553942497299657e+00,
          1.3343531580314718e+00, 3.8136479021262704e-01,
          2.3760185528115803e+00, -6.8072867932122960e-01,
          1.5319702333603189e+00, 6.3649201877381112e-01,
          -5.4811760023807629e+01, -2.0775367300534114e-01,
          1.4782619633945169e+00, -3.1068225598585769e-01,
          -2.3943915933265667e+00, -3.7215587459973493e-01,
          4.1773212454844705e-01, 6.9057665309044591e-01,
          -2.7764280849520245e-01, 4.7225395869645572e+00,
          1.3603476689222911e+00, 4.2096386171423211e-01,
          5.0667803404875300e-01, -1.0559769146530671e+00,
          -7.4862885259539524e-01, 1.8314215719381188e+00,
          -2.2766408305311781e+01, -8.0329392409424671e-01,
          9.5330757531046784e-01, -5.4045751974573975e-01,
          -2.7980761432938488e+00, -3.0838688986238134e+00,
          -2.2426303339006259e-01, 6.7584690547163484e-01,
          5.2535671327691037e-03, 2.7802038142923111e+00,
          1.3062028165388582e+00, 1.5828589977827476e+00,
          5.0795155730414498e-01, -6.6232551862253586e-01,
          -4.9247633599915647e-01, 9.1527844644499001e-01,
          -1.3109358749883341e+01, -7.0712792583416978e-02,
          1.6688527445836059e+00, -2.7343669864309222e-01,
          5.1864744646697804e-02, 2.6785036675356333e-01,
          -4.6944815552302746e-02, 1.8152925108206724e-01,
          -6.1362033290327156e-01, 2.3835179576970500e+00,
          1.5790010229203766e+00, 2.9722630294631913e-01,
          1.1083014469959540e+00, -2.0048548153270740e-01,
          -2.4049189701283247e-01, 1.5079487725288641e+00,
          -8.3235104130442075e+00, 4.8199284683963367e-01,
          1.7653468569693080e+00, -1.0038438318028706e+00,
          -4.1624252691446415e+00, -1.7939041080539309e+00,
          1.9560299851484245e-01, -1.7266866535444184e-02,
          -1.7523394808172868e-01, 1.5313036175138901e+00,
          1.4782018879164622e+00, 1.4796615999516241e+00,
          7.9813463016921227e-01, -1.9369046161404959e+00,
          -9.6174339840875911e-01, 1.1469386162879858e+00,
          7.1007660791865366e+00, -2.7071402175031484e-01,
          1.5077005282943452e+00, -5.2514965836975747e-01,
          -4.1812875849082204e-01, 4.3197804202551771e-01,
          -1.8914983577433120e-01, 3.5139713494388358e-01,
          -7.7867664036837059e-01, 1.8556104296087756e+00,
          1.3086915985382392e+00, -6.5325027468341901e-02,
          1.0005908412411855e+00, 4.4777824283574974e-01,
          2.7302263981676589e-01, 6.1334381038157970e-01,
          1.0100527120508589e+01, -5.4504662385953395e-01,
          6.1868301928889857e-01, 2.4296017993787328e-01,
          2.7648495915938520e-01, -1.3283486897407060e+00,
          7.6394403840096187e-02, 3.1083096581650127e-01,
          -3.5618780513970544e-01, 6.7346494360930531e-01,
          4.9034758335117457e-01, 7.4819913081034828e-01,
          2.0118285888780107e-01, -1.1184317666058989e+00,
          -2.7408834103895341e-01, 5.1960940059245664e-01,
          1.3239385727057769e+01, 4.3044806217869608e-01,
          1.8386849519731381e+00, -5.3302766190533346e-01,
          -4.2150003988162954e+00, -6.3175495837168605e-01,
          -7.4249369967003931e-02, -4.4140998128669473e-01,
          -2.0087092561306812e+00, 7.8653526195111045e-01,
          1.7198922021593599e+00, 3.5140115990284382e-01,
          9.4665380133567056e-01, -2.3738112002315881e+00,
          -1.5097893544667951e+00, 1.6999238092951725e+00,
          7.6167847822740526e+00, -1.7517402353433351e-01,
          1.1724951053814316e+00, 1.2183125707480574e-01,
          -5.6411272589129824e-01, 1.8100408889087674e-01,
          1.9903517128382306e-01, 5.7967345342306065e-01,
          -8.5473856208663684e-02, 1.0570653317350900e+00,
          7.6426299356550598e-01, 3.7271017684083479e-01,
          8.7522558844026388e-01, 8.0690527989496816e-02,
          -1.5412755113454893e-02, 9.2636402641030557e-01,
          -9.4400124927976350e+00, -5.9010619348454786e-02,
          1.2410372182626150e+00, -6.3833420476361413e-01,
          -4.5027136216555180e-01, 1.6366396867059838e-01,
          1.1398467743716425e+00, 3.9720170077090966e-01,
          -1.2161431026535684e-01, -3.5479679962958560e-01,
          6.9571839521555845e-01, -1.1968608876335052e-02,
          7.2320431040708968e-02, -3.1973566165428452e-01,
          -7.4531305032002337e-01, 3.4062002411355280e-01,
          -8.1977801096600658e+00, -2.5037597612272727e-02,
          5.5617993941788690e-01, -9.9057735338727526e-02,
          -3.2843791140298922e-01, -2.2357354865220003e-01,
          2.1235998516770510e-01, 1.9867810234310374e-01,
          -8.3269502299399334e-02, -3.4859801077177732e-02,
          1.6156351858610511e+00, 1.3816046691422781e-01,
          2.6535712273147755e-01, -3.3615999285732623e-01,
          -4.0826353141689131e-01, 3.9582274377185234e-01,
          -8.7823141582624848e-04, -2.3369647705585284e-03,
          -5.3373035215111529e-04, 9.0781313441811568e-04,
          -4.4865141475821757e-04, 2.2436406858671442e-03,
          1.4275370958122049e-03, 2.4670953165398992e-03,
          2.3816017868437738e-03, 1.5017323252698932e-03,
          -1.4154563558225182e-03, -3.5755346895167478e-04,
          7.1516188843852367e-04, -7.3779733420944321e-04,
          4.4657922783472456e-04, -4.1027652782139289e-05,
          -4.3453584447660448e-04, -9.5766896132487892e-04,
          1.0889879934738375e-03, -2.5208290587357047e-03,
          -1.2371731077673587e-03, 1.7243658527750136e-04,
          -7.1814765299688585e-05, 1.2660865952445789e-03,
          -1.1987481753990398e-03, 1.2792728398183400e-03,
          1.6120760419898520e-03, -1.2078088903593194e-04,
          2.2565546247348620e-03, 1.1809491740576942e-03,
          -8.9488941121779460e-05, -1.5977415668018361e-03,
          3.9143925733058271e-01, -1.9263195494242342e-02,
          7.5255058592396243e-02, 3.5665575897176539e-02,
          -2.7332212909756538e-03, 7.9273280550630543e-02,
          -6.8248398878135927e-02, 4.0589955651289924e-03,
          1.1833167883674352e-01, -4.1454139642113960e-02,
          6.9046454809890620e-02, -3.1088260011482200e-02,
          3.6628374970415284e-01, -5.8982059772060592e-02,
          4.6312678915390919e-02, -2.0031993040951181e-02,
          9.5936692711562177e+00, -1.0913016602854496e-01,
          6.6196096880988015e-02, 2.6668573287504727e-01,
          -7.8460599766580430e-01, 1.3728890645329908e-01,
          4.9554331210323696e-02, 1.2703116242928911e-01,
          3.9129030195334241e-01, 1.4740143411697196e-01,
          -3.4765723192652372e-02, -4.4693676858661401e-02,
          1.4542435041763707e-01, 1.1415386380203503e-01,
          1.4945850122257040e-01, 1.8785159924754428e-02,
          -1.0675287532051675e+01, -1.0562624883137799e+00,
          -1.1455403069370080e+00, 5.8034195990521420e-01,
          3.1780581373144746e-03, -5.7071039038964200e-01,
          -6.6366144611695488e-02, -3.6946014085967438e-01,
          -4.3478600844813542e-01, -3.7717776404655945e-01,
          -9.4578926183671119e-01, -2.1608550774800075e-01,
          7.9102494436322016e-02, 1.1915954589858099e-01,
          2.9322117448341917e-01, 1.6998977466082082e-01,
          3.6217665630419283e+01, -1.8238296966320516e-01,
          -1.0206823117739834e-02, 2.6876583649157681e-01,
          -9.1074058519359569e-01, -6.5692625601427546e-01,
          6.0260272979041261e-02, 4.3856909327192600e-01,
          -3.8952664843857933e-02, 7.2710012149843750e-01,
          -4.2944171909268214e-01, 2.7015724121291668e-01,
          -2.6379299397668251e-02, -4.5284621948067477e-01,
          6.2476562652415546e-01, -2.2359221937565546e-01,
          4.6966142814190670e+00, -1.2081890572168201e-01,
          2.6133375156188177e-01, 7.7037707481007378e-01,
          -5.5336057803483951e-01, -1.3926892237743693e-01,
          -1.7771439445137557e-01, 3.4910593812516755e-01,
          4.8745688029551248e-01, 1.5982902311722061e-01,
          1.9681278558137782e-01, -9.4060081563987541e-01,
          6.2305189999693722e-01, 3.5014021654755423e-01,
          4.2686779963778271e-01, -3.5827051880906940e-01,
          -2.0390331345014719e+01, 7.2720656671387085e-01,
          -3.2487968652719773e-01, -2.2836014006195540e-01,
          -6.6140703839520448e-02, -1.2908122811074993e+00,
          -2.1922668891042330e-02, 9.7218542411019168e-02,
          -2.1615063684689653e-01, -3.1319935553447359e-01,
          -5.9333033141967872e-01, -2.9287627892096152e-01,
          -2.1098402458269060e-02, -5.5231300363892577e-01,
          5.5471413454391362e-02, 1.1386743270089610e-01,
          -3.0679017891015690e+01, -4.6346536194515697e-01,
          -6.1811060426073616e-01, -9.2322276286618044e-02,
          5.9088146147324905e-01, -4.6960883816064458e-01,
          -1.1171942527589023e+00, -3.2538437243888657e-01,
          -1.1963894285022656e-02, 2.8654466655834543e-01,
          5.9312077691346043e-01, -4.0676969337239066e-01,
          -3.0767728836756791e-01, -1.3119702110429473e-02,
          3.6697756525019337e-01, 2.1845616930334941e-01,
          -7.1031376648715039e+01, 4.3760246648050549e-01,
          8.7761616752635463e-01, 7.4253729296564241e-01,
          -1.1073237673021286e+00, 2.2960129739170263e+00,
          1.3822402138508934e+00, 5.8155696864315098e-01,
          2.3646285658429428e-01, 1.1489107378364327e+00,
          -3.6049136847238122e-02, 1.0746028133629805e-01,
          -6.3853549869842241e-01, 1.3840516881156077e+00,
          -3.9535029073488681e-01, 6.9444579390888017e-01,
          -1.2430237743235627e+02, 4.1329099995393992e-01,
          -1.5051557181655888e+00, 1.8706999902637605e-01,
          6.5053958399757209e-02, 5.4445400423918731e-02,
          -9.5703043032631574e-01, 2.0591697418050792e-01,
          1.2160997854579834e-01, 7.8945612972515300e-01,
          -9.1184030909905689e-01, -2.2506161160606442e-01,
          9.2572898706211915e-01, 4.3672704878149166e-01,
          9.5507594819793973e-01, -1.1412055571292143e+00,
          -1.5948263576301318e+02, 4.6369604473363130e-01,
          4.7084857618341391e-01, -3.4860672369897255e-01,
          3.0154547630162454e-01, -1.8543058874641266e-01,
          -2.6194427203089726e-01, 4.3926291908472742e-01,
          3.1804753880724679e-01, -2.1933940280241049e-01,
          -3.3666295750050718e-01, -4.8150863865846869e-02,
          -2.2279217022268730e-01, 5.8319996502500882e-01,
          6.3779689096439784e-01, 1.0943632992835068e+00,
          -1.9060525970806378e+02, 1.4177649107641133e+00,
          -1.8969544015699060e+00, 2.1815618258512187e-01,
          -5.2638422734060530e-01, 5.4100551706080824e-01,
          -1.0461342370139709e-01, -4.0156094543546239e-01,
          -1.2898649401031381e-01, 1.0964359671237300e+00,
          3.2025686422573901e-01, -5.2927223910559595e-01,
          2.5218708489061992e-01, 9.0030901938259589e-01,
          2.4623512342365875e-01, 9.1901781048661724e-01,
          -2.1091593680266712e+02, -5.2743576404805939e-02,
          2.4291308848619175e-01, 2.0730935640300022e-01,
          5.3638931062253903e-01, -1.5744599759518615e-01,
          -4.9145344058416401e-01, 2.9762796677349351e-01,
          9.4362383500498831e-02, 5.7636182994987434e-02,
